%YAML:1.0
---
opencv_ml_svm:
   format: 3
   svmType: C_SVC
   kernel:
      type: LINEAR
   C: 1.
   term_criteria: { iterations:100 }
   var_count: 6480
   class_count: 2
   class_labels: !!opencv-matrix
      rows: 2
      cols: 1
      dt: i
      data: [ -1, 1 ]
   sv_total: 1
   support_vectors:
      - [ -8.46912280e-06, -1.43096913e-05, -1.86532798e-05,
          -2.06355435e-05, -2.25704152e-05, -2.36882388e-05,
          -2.32729217e-05, -1.94984859e-05, -1.66131704e-05,
          -1.63710065e-05, -1.59000756e-05, -1.48110175e-05,
          -1.57285722e-05, -1.40761549e-05, -1.14597497e-05,
          -1.03210605e-05, -1.13661872e-05, -1.21741614e-05,
          -7.81065228e-06, 8.92752396e-08, 8.51424556e-06,
          1.50141796e-05, 2.22453727e-05, 2.15701675e-05, 1.67512881e-05,
          1.18780108e-05, 1.31596826e-05, 1.83713510e-05, 2.32332059e-05,
          2.76777009e-05, 2.73884398e-05, 2.37577151e-05, 2.22336112e-05,
          2.30579390e-05, 2.68705371e-05, 3.09673560e-05, 3.24684006e-05,
          3.44458022e-05, 3.94579547e-05, 4.51068627e-05, 4.68209801e-05,
          4.26932529e-05, 3.76403223e-05, 2.99678431e-05, 2.67112646e-05,
          2.45993815e-05, 2.55061332e-05, 2.47392309e-05, 1.94815038e-05,
          1.59261435e-05, 1.40599668e-05, 1.31872994e-05, 1.47650180e-05,
          2.09488699e-05, 2.50575122e-05, 2.48180640e-05, 2.34153049e-05,
          2.29304278e-05, 2.29408433e-05, 2.37842778e-05, 2.67834548e-05,
          2.78668631e-05, 2.67585237e-05, 3.04963978e-05, 3.30122675e-05,
          3.05063968e-05, 3.08933631e-05, 2.91954166e-05, 2.52068421e-05,
          1.99178630e-05, 1.15055163e-05, 1.44713886e-06,
          -1.28419342e-05, -1.47718501e-05, -1.57890008e-05,
          -1.58872099e-05, -1.47994615e-05, -1.09378852e-05,
          -7.85592420e-06, -6.02312684e-06, -7.49558649e-06,
          -9.94798302e-06, -1.20509821e-05, -1.21405728e-05,
          -1.21432577e-05, -1.15642742e-05, -1.22219808e-05,
          -1.21632957e-05, -1.25030938e-05, -1.18503731e-05,
          -6.15345061e-06, 5.83368660e-07, 9.03878026e-06,
          1.81106025e-05, 2.43894010e-05, 2.39439814e-05, 1.87546357e-05,
          1.25284259e-05, 1.26514569e-05, 1.91349063e-05, 2.40290010e-05,
          2.79410415e-05, 2.69203683e-05, 2.35106090e-05, 2.63474867e-05,
          2.93215944e-05, 2.83713398e-05, 2.89041909e-05, 2.82557430e-05,
          2.91994365e-05, 3.31134688e-05, 3.82570543e-05, 4.05468963e-05,
          3.91812937e-05, 3.89876732e-05, 3.16011756e-05, 2.48509859e-05,
          2.17063898e-05, 2.34951640e-05, 2.41118214e-05, 2.09557275e-05,
          1.77356324e-05, 1.60946911e-05, 1.52373605e-05, 1.62263386e-05,
          2.02258598e-05, 2.17439356e-05, 1.93125106e-05, 1.66803802e-05,
          1.81417854e-05, 2.06319837e-05, 2.27362725e-05, 2.49256645e-05,
          2.45170013e-05, 2.27250603e-05, 2.57744850e-05, 2.86438808e-05,
          2.80787153e-05, 2.86695140e-05, 2.56261519e-05, 2.05210490e-05,
          1.58833172e-05, 1.29413247e-05, 3.49216361e-06,
          -1.04577739e-05, -8.31665511e-06, -5.33570483e-06,
          -4.88202022e-06, -2.33504693e-06, 1.91779714e-06,
          5.24105008e-06, 2.81576831e-06, -3.23027916e-06,
          -6.03331910e-06, -7.79284255e-06, -8.95227004e-06,
          -1.04538876e-05, -1.15640869e-05, -1.39702825e-05,
          -1.50981223e-05, -1.54266709e-05, -1.20197592e-05,
          -4.54119390e-06, 2.46653758e-06, 1.23686432e-05,
          2.24777286e-05, 2.64836344e-05, 2.44799467e-05, 1.99390106e-05,
          1.25862816e-05, 1.34805196e-05, 1.99205297e-05, 2.62994272e-05,
          3.25097790e-05, 3.51140297e-05, 3.15741527e-05, 3.14923673e-05,
          2.95459922e-05, 3.26123445e-05, 3.16444894e-05, 3.07784030e-05,
          3.08011149e-05, 3.75572272e-05, 4.34846297e-05, 4.67884456e-05,
          4.69309416e-05, 4.36937516e-05, 3.44730433e-05, 2.47822754e-05,
          2.31637696e-05, 2.70033415e-05, 2.82077817e-05, 2.54693987e-05,
          2.11844344e-05, 2.04525531e-05, 2.00128707e-05, 2.17130582e-05,
          2.44653311e-05, 1.95117209e-05, 1.57927516e-05, 1.32458281e-05,
          1.51578615e-05, 1.82123495e-05, 2.19218673e-05, 2.38034154e-05,
          2.28461249e-05, 2.11266852e-05, 2.27115361e-05, 2.54463284e-05,
          2.54824790e-05, 2.30222886e-05, 1.68533952e-05, 9.29112593e-06,
          4.04948423e-06, 4.26494853e-06, -2.46600007e-06,
          -2.36549613e-06, 1.57945715e-06, 5.98393081e-06,
          5.94675248e-06, 7.15493024e-06, 1.03437751e-05, 1.21820749e-05,
          6.91704736e-06, -1.69308419e-06, -5.18575507e-06,
          -6.69448582e-06, -8.06730804e-06, -9.21480296e-06,
          -9.67766664e-06, -1.08850381e-05, -1.21284993e-05,
          -1.33652993e-05, -1.08690865e-05, -4.09770473e-06,
          4.69001452e-06, 1.52843841e-05, 2.37560307e-05, 2.33003720e-05,
          1.96816964e-05, 1.77747061e-05, 1.31885045e-05, 1.55795096e-05,
          2.31726553e-05, 2.71454155e-05, 3.74454830e-05, 3.58880898e-05,
          3.36883859e-05, 2.79346714e-05, 2.92191162e-05, 3.24994398e-05,
          3.15450052e-05, 3.06354559e-05, 3.51904600e-05, 4.14739407e-05,
          4.75816378e-05, 5.35006293e-05, 5.43140159e-05, 4.82657706e-05,
          3.53946234e-05, 2.50002158e-05, 2.39908004e-05, 2.89739492e-05,
          3.17794729e-05, 2.96340750e-05, 2.70079890e-05, 2.97499028e-05,
          3.06367510e-05, 2.96196504e-05, 2.73890928e-05, 2.55618033e-05,
          2.21809350e-05, 1.87688402e-05, 2.00735503e-05, 2.26170032e-05,
          2.38106859e-05, 2.36059714e-05, 2.17194702e-05, 1.98846719e-05,
          2.23465886e-05, 2.80218574e-05, 2.77806557e-05, 2.11202114e-05,
          1.10665324e-05, 1.37501149e-06, -6.05137939e-06,
          -9.34999480e-06, -1.51507893e-05, 5.24132065e-06,
          7.28263603e-06, 9.43839132e-06, 8.13035331e-06, 9.81978337e-06,
          1.42711096e-05, 1.38517016e-05, 5.42001817e-06,
          -2.51121787e-06, -6.90337811e-06, -8.54622886e-06,
          -7.80764822e-06, -6.47385832e-06, -4.26950874e-06,
          -3.05327103e-06, -2.88656315e-06, -3.94441076e-06,
          -3.65929782e-06, 7.53922393e-07, 7.77370315e-06,
          1.67180551e-05, 2.17299730e-05, 1.85210265e-05, 1.42174722e-05,
          1.30135986e-05, 1.27016801e-05, 1.46752900e-05, 1.98521720e-05,
          2.39871642e-05, 3.31830888e-05, 2.96056405e-05, 2.59017725e-05,
          2.26825268e-05, 2.61123660e-05, 3.00416941e-05, 3.12889861e-05,
          3.72704490e-05, 3.92530201e-05, 4.41236116e-05, 5.10023965e-05,
          5.90441341e-05, 5.69070544e-05, 4.83099138e-05, 3.47028108e-05,
          2.41206290e-05, 2.44504099e-05, 2.78679308e-05, 3.32541676e-05,
          3.57873105e-05, 3.63228355e-05, 3.49555521e-05, 3.42383682e-05,
          3.30240182e-05, 2.99883231e-05, 2.93917765e-05, 2.83375684e-05,
          2.46870895e-05, 2.74405411e-05, 3.04770092e-05, 2.94811070e-05,
          2.78244715e-05, 2.78036332e-05, 2.46981817e-05, 2.47843527e-05,
          2.92914174e-05, 2.77449672e-05, 2.09807622e-05, 1.35604369e-05,
          5.80815095e-06, -1.98148223e-06, -9.28416466e-06,
          -1.99721198e-05, 7.02889156e-06, 5.28249711e-06,
          5.08080257e-06, 4.79422260e-06, 7.08588504e-06, 1.14589711e-05,
          1.01601290e-05, 3.25459155e-06, -1.94930703e-06,
          -6.53668394e-06, -8.18320768e-06, -6.69887550e-06,
          -4.23240317e-06, -4.33632266e-07, 3.64108746e-06,
          6.74072044e-06, 1.07090864e-05, 1.16813990e-05, 1.39893818e-05,
          1.85338904e-05, 2.20560414e-05, 2.33602786e-05, 2.05777433e-05,
          1.78670289e-05, 1.96815636e-05, 2.24827327e-05, 2.16979370e-05,
          2.12518353e-05, 2.10297330e-05, 2.75656676e-05, 2.67903306e-05,
          2.48811266e-05, 2.19681369e-05, 2.23007701e-05, 2.75349703e-05,
          3.01713571e-05, 3.17711929e-05, 3.25396613e-05, 4.02530750e-05,
          5.52041856e-05, 6.41262741e-05, 5.76348357e-05, 3.94394774e-05,
          2.67460000e-05, 2.01903986e-05, 2.27136352e-05, 2.28254667e-05,
          2.56660060e-05, 3.01765867e-05, 3.48047288e-05, 3.49828952e-05,
          3.60896192e-05, 3.13017481e-05, 2.55821742e-05, 2.40513491e-05,
          2.50741050e-05, 2.39940819e-05, 2.41779599e-05, 2.89979016e-05,
          2.87119474e-05, 2.85014139e-05, 3.13757373e-05, 3.07882947e-05,
          2.98262457e-05, 3.14411518e-05, 3.07429837e-05, 2.78299194e-05,
          2.28713816e-05, 1.57773520e-05, 6.69794827e-06,
          -1.58357170e-06, -1.39720823e-05, 6.11773521e-06,
          2.12763166e-06, 6.12516430e-07, 1.86468901e-06, 5.89603451e-06,
          9.00867781e-06, 7.38138579e-06, 3.97914846e-06,
          -1.29851074e-07, -4.15377326e-06, -6.09795688e-06,
          -4.71768726e-06, -2.00425529e-06, 9.81102130e-06,
          2.42584447e-05, 2.89381405e-05, 2.08318015e-05, 2.10260660e-05,
          2.24104169e-05, 2.61057230e-05, 2.97076494e-05, 2.90100816e-05,
          2.47544922e-05, 2.38296743e-05, 2.97708993e-05, 3.10446158e-05,
          2.83307018e-05, 2.81526482e-05, 2.98267369e-05, 2.74060549e-05,
          3.42555177e-05, 3.05553622e-05, 2.47482640e-05, 2.38567627e-05,
          2.72984198e-05, 2.74614013e-05, 3.39135258e-05, 4.19315438e-05,
          5.64938600e-05, 6.08620576e-05, 5.93242221e-05, 4.71035273e-05,
          3.71772039e-05, 2.46639720e-05, 2.35901771e-05, 1.96089186e-05,
          1.74170837e-05, 1.32422219e-05, 1.96241799e-05, 2.64526116e-05,
          3.14576246e-05, 2.85831738e-05, 2.22768758e-05, 1.53583405e-05,
          1.40241991e-05, 1.87010519e-05, 1.87265105e-05, 2.16629269e-05,
          2.03806976e-05, 2.25073909e-05, 2.36871183e-05, 2.57589727e-05,
          2.91600827e-05, 2.96135349e-05, 2.92979948e-05, 2.87034709e-05,
          2.73992046e-05, 2.73022488e-05, 2.29526559e-05, 1.53946876e-05,
          8.87935857e-06, -1.24375788e-06, 7.11124676e-06,
          1.86597924e-06, -6.80421920e-07, 6.52361052e-07,
          4.45009346e-06, 3.84379427e-06, 4.45145361e-06, 4.61178797e-06,
          2.67326612e-07, -3.05572530e-06, -5.29596900e-06,
          -3.46459956e-06, 4.70840860e-06, 2.29916259e-05,
          3.04274345e-05, 3.59250953e-05, 3.96197684e-05, 3.76337666e-05,
          3.25084693e-05, 2.12312261e-05, 2.43903050e-05, 3.07917981e-05,
          3.27519519e-05, 3.38659338e-05, 3.59285004e-05, 3.22168016e-05,
          2.37136337e-05, 2.13777639e-05, 1.89179973e-05, 2.27997207e-05,
          3.02247645e-05, 3.69636000e-05, 2.32678012e-05, 2.75050552e-05,
          3.19287901e-05, 3.85455933e-05, 3.69395384e-05, 4.43461213e-05,
          5.16557666e-05, 5.25674113e-05, 3.95378775e-05, 3.04560799e-05,
          2.80703098e-05, 2.09087739e-05, 1.90470164e-05, 1.48579329e-05,
          1.08298136e-05, 6.89122226e-06, 1.31963361e-05, 1.96014098e-05,
          2.46077489e-05, 2.41459547e-05, 2.14702795e-05, 1.97566442e-05,
          2.12522827e-05, 2.46451418e-05, 2.31944596e-05, 2.27968412e-05,
          2.63771490e-05, 1.98211274e-05, 1.68455317e-05, 1.83211450e-05,
          2.18560908e-05, 2.44732964e-05, 2.69172087e-05, 2.53183407e-05,
          2.48090073e-05, 2.69743705e-05, 2.60436464e-05, 2.16757307e-05,
          1.75133573e-05, 1.09111916e-05, 8.70133408e-06, 4.04733328e-06,
          9.07512970e-07, 4.24935081e-07, 2.98751729e-07, 3.01254772e-07,
          3.27883708e-06, 3.67274288e-06, -1.90924140e-07,
          -2.96319354e-06, -5.51562016e-06, -4.31471364e-07,
          8.66389746e-06, 2.47175685e-05, 3.28414499e-05, 2.83963709e-05,
          2.93446883e-05, 3.04903388e-05, 3.35535769e-05, 3.21865955e-05,
          3.21518310e-05, 3.28330570e-05, 3.37098645e-05, 3.50948612e-05,
          3.48753820e-05, 2.64453247e-05, 2.19376525e-05, 2.32309776e-05,
          1.95409593e-05, 2.10085691e-05, 3.37241690e-05, 3.61339808e-05,
          2.95010141e-05, 3.81789650e-05, 4.63584329e-05, 5.16200453e-05,
          4.02786573e-05, 4.96900429e-05, 4.45349651e-05, 5.40810688e-05,
          3.48469912e-05, 2.48595643e-05, 2.55342566e-05, 1.35513683e-05,
          1.37288425e-05, 8.80823609e-06, 3.76503658e-06, 3.76442608e-06,
          6.01189504e-06, 1.37560719e-05, 1.52935954e-05, 1.84532018e-05,
          2.33664141e-05, 2.49960558e-05, 2.68102376e-05, 3.07790615e-05,
          2.76240498e-05, 3.27429116e-05, 3.21411753e-05, 2.26396278e-05,
          1.34959655e-05, 1.43387197e-05, 1.76924023e-05, 2.27536984e-05,
          2.69976863e-05, 2.70103901e-05, 2.35464795e-05, 2.30979113e-05,
          2.39062083e-05, 2.29893049e-05, 2.18219011e-05, 1.83401280e-05,
          1.29052869e-05, 7.83705673e-06, 2.50956828e-06, 4.99608461e-07,
          -2.82049314e-07, 1.44479714e-06, 7.43039118e-06,
          7.07961226e-06, 3.51053745e-06, 3.84157829e-07,
          -2.42702049e-06, 6.84536781e-06, 1.17561131e-05,
          2.03470481e-05, 2.85318001e-05, 2.93689882e-05, 3.17872327e-05,
          3.54698896e-05, 3.89619781e-05, 4.07166044e-05, 4.70034829e-05,
          5.21283218e-05, 5.20649701e-05, 4.18587588e-05, 3.28324459e-05,
          2.03706659e-05, 2.55658797e-05, 3.41008417e-05, 3.55154734e-05,
          4.86861645e-05, 4.72597712e-05, 4.05367027e-05, 3.74985830e-05,
          4.61830496e-05, 5.32184604e-05, 4.28396961e-05, 3.16105761e-05,
          2.26952725e-05, 2.56689691e-05, 3.94256931e-05, 4.19004464e-05,
          4.01617071e-05, 2.72458656e-05, 2.94228958e-05, 2.17666366e-05,
          9.63720868e-06, 9.01116891e-06, 3.59447154e-06, 1.33875856e-05,
          1.29592536e-05, 1.17103673e-05, 1.19003480e-05, 2.13352942e-05,
          2.52535738e-05, 2.42447459e-05, 2.45067386e-05, 3.07657210e-05,
          3.19437786e-05, 3.16810329e-05, 3.06162437e-05, 2.10763083e-05,
          1.82508757e-05, 2.47621538e-05, 2.72683465e-05, 3.02256849e-05,
          3.10444739e-05, 3.04569967e-05, 2.48526430e-05, 2.26452175e-05,
          2.12345312e-05, 1.78600949e-05, 1.42965555e-05, 1.75549903e-05,
          8.94877849e-06, 2.01671401e-06, 2.05964375e-06, 2.18467471e-06,
          6.54496307e-06, 1.10561405e-05, 8.15372641e-06, 4.22071571e-06,
          -1.42397084e-06, -3.40855991e-06, 2.84350176e-06,
          1.02095355e-05, 1.98962953e-05, 2.96426861e-05, 4.65018456e-05,
          4.54346446e-05, 4.36531300e-05, 4.35820220e-05, 4.36690752e-05,
          5.17945264e-05, 5.45768926e-05, 5.21582770e-05, 4.52608656e-05,
          3.41797640e-05, 2.27039109e-05, 1.35423988e-05, 2.49053228e-05,
          3.85134626e-05, 4.32648703e-05, 4.30547589e-05, 2.68046861e-05,
          2.49074619e-05, 3.03750585e-05, 3.75462914e-05, 4.10686262e-05,
          3.47625974e-05, 3.12791599e-05, 2.81967532e-05, 3.08579074e-05,
          3.23947788e-05, 3.21470943e-05, 2.02592728e-05, 2.50733374e-05,
          2.87561361e-05, 3.22361157e-05, 2.78252701e-05, 2.24840205e-05,
          1.39094236e-05, 1.13524902e-05, 7.99255849e-06, 1.45388631e-05,
          2.25699805e-05, 2.56512540e-05, 1.61056632e-05, 2.05278302e-05,
          3.02176995e-05, 3.40403640e-05, 3.25127403e-05, 3.00610027e-05,
          3.10044961e-05, 2.70942510e-05, 2.82957189e-05, 2.83040154e-05,
          2.73318237e-05, 2.73288279e-05, 2.26910670e-05, 1.97429126e-05,
          2.02794290e-05, 1.80208081e-05, 1.46000602e-05, 9.03162982e-06,
          2.44959247e-05, 1.17691479e-05, 5.26073154e-06, 6.92784397e-06,
          8.14879149e-06, 1.03255388e-05, 9.58741930e-06, 5.38038194e-06,
          1.17262664e-06, 1.96847878e-07, 8.12796770e-06, 1.13563010e-05,
          2.37001695e-05, 3.47064888e-05, 4.36105984e-05, 5.62261521e-05,
          5.33916973e-05, 4.24513673e-05, 3.18104649e-05, 2.49352033e-05,
          3.02055050e-05, 3.76641437e-05, 4.92471991e-05, 4.04611928e-05,
          2.43081086e-05, 1.26106106e-05, 2.94594406e-06,
          -2.21730875e-06, 1.27444137e-05, 2.88780757e-05,
          3.28945462e-05, 3.92622896e-05, 2.77085801e-05, 2.06757413e-05,
          3.82183680e-05, 5.25205542e-05, 3.79063968e-05, 2.41056714e-05,
          2.96566523e-05, 3.87186701e-05, 4.02182159e-05, 3.07079536e-05,
          7.09581218e-06, 2.05040214e-05, 2.59953667e-05, 4.11451474e-05,
          3.56574456e-05, 2.87437633e-05, 2.44856565e-05, 2.89367908e-05,
          3.64478146e-05, 3.33578464e-05, 3.54537806e-05, 3.05916801e-05,
          1.80620300e-05, 2.41546222e-05, 2.20905713e-05, 3.70759226e-05,
          3.63936815e-05, 3.90534406e-05, 3.50993105e-05, 2.78016851e-05,
          2.34824474e-05, 1.95377470e-05, 1.62134838e-05, 1.61833650e-05,
          1.51974855e-05, 1.43817506e-05, 1.53163801e-05, 1.54559984e-05,
          1.37537154e-05, 7.22689038e-06, 2.60529760e-05, 1.26322175e-05,
          8.66022947e-06, 1.05036725e-05, 1.01361511e-05, 8.08934692e-06,
          5.75559852e-06, 2.88579326e-06, 1.84330304e-06, 4.56504176e-06,
          1.72373911e-05, 2.18806144e-05, 2.91378929e-05, 4.20253382e-05,
          5.65087503e-05, 5.50262776e-05, 5.18662164e-05, 4.91913779e-05,
          4.30710425e-05, 2.54012684e-05, 1.95517987e-05, 6.48690411e-06,
          -2.54495853e-06, 1.30941753e-05, 2.30209589e-05,
          7.48946741e-06, 7.68983853e-07, -1.74946890e-05,
          -2.01305284e-05, 7.91448019e-06, 2.30018177e-05,
          2.75351940e-05, 2.06813475e-05, 1.07904743e-05, 1.73018816e-05,
          3.24322318e-05, 2.09997215e-05, 1.37291263e-05, 1.55436664e-05,
          3.41674822e-05, 4.13600283e-05, 3.16582991e-05, 2.25725635e-05,
          2.92181139e-05, 2.80825079e-05, 3.28744463e-05, 4.31353001e-05,
          4.95848290e-05, 4.07177031e-05, 5.21911170e-05, 5.24261814e-05,
          5.22919945e-05, 4.79584014e-05, 3.63915242e-05, 1.24348526e-05,
          1.25012621e-05, 1.70403364e-05, 3.45622175e-05, 3.96760297e-05,
          3.48399917e-05, 3.38770406e-05, 2.74555132e-05, 2.02199062e-05,
          1.78329738e-05, 1.64896628e-05, 1.51131635e-05, 1.38324776e-05,
          1.16249439e-05, 1.11609652e-05, 1.02854929e-05, 7.97740086e-06,
          2.17997012e-06, 3.05465146e-05, 1.74212346e-05, 1.14959603e-05,
          9.59770023e-06, 8.50779179e-06, 6.65414200e-06, 5.68103314e-06,
          5.16361433e-06, 6.17266642e-06, 1.20272825e-05, 2.04751832e-05,
          2.71746030e-05, 3.28553724e-05, 4.45251681e-05, 5.66871749e-05,
          5.11228100e-05, 4.52587592e-05, 4.46196136e-05, 3.05809190e-05,
          2.96469589e-05, 2.19125031e-05, 2.42715555e-06,
          -9.87214480e-06, 5.99261239e-06, 1.63368659e-05,
          3.53078212e-06, -9.10906692e-06, -2.09059745e-05,
          -2.96534254e-05, -1.88226113e-05, 1.33145895e-05,
          2.01451840e-05, 2.37098502e-05, 1.06359839e-05, 4.52379709e-06,
          3.23232575e-06, 9.11982806e-06, 1.33003359e-05, 1.15908279e-05,
          3.01766286e-05, 4.34571375e-05, 2.70331275e-05, 2.97388196e-05,
          4.10334469e-05, 2.74456143e-05, 2.49367458e-05, 2.64276186e-05,
          4.34639114e-05, 5.03612282e-05, 5.62042296e-05, 5.84998998e-05,
          6.04041343e-05, 6.05040004e-05, 4.72912398e-05, 2.56042549e-05,
          9.52084429e-06, 9.19051490e-06, 2.20500242e-05, 3.75359668e-05,
          3.46964625e-05, 3.19236351e-05, 3.01632062e-05, 2.87861985e-05,
          2.69098764e-05, 2.33650917e-05, 1.83034972e-05, 1.48079971e-05,
          1.06572224e-05, 8.09817539e-06, 5.57935573e-06, 2.13159751e-06,
          -2.80047993e-06, 3.78781842e-05, 2.54984516e-05,
          1.54791487e-05, 9.86759187e-06, 8.32472142e-06, 9.30069018e-06,
          1.12446587e-05, 1.28825232e-05, 1.67821599e-05, 1.48476856e-05,
          1.55794878e-05, 2.57358479e-05, 2.94290276e-05, 3.83255901e-05,
          3.81844911e-05, 5.12699080e-05, 5.66952076e-05, 4.72684769e-05,
          2.83741829e-05, 3.48328686e-05, 3.06225083e-05, 2.72073266e-05,
          2.90070739e-06, 1.29046866e-05, 4.11081692e-06, 3.08522431e-06,
          5.20295725e-06, -9.99559052e-06, -3.00145985e-05,
          -1.99138358e-05, -1.20450486e-05, 6.33032732e-06,
          1.77698221e-05, 5.51386211e-06, -7.58162469e-06,
          -1.58650328e-05, 1.74041588e-06, 8.08442655e-06,
          4.35122784e-05, 4.15236209e-05, 4.33414134e-05, 3.37010242e-05,
          4.07201005e-05, 3.58992984e-05, 1.98162670e-05, 1.26202531e-05,
          1.72328710e-05, 3.41970335e-05, 5.16953951e-05, 6.06324429e-05,
          7.30228930e-05, 6.28970083e-05, 5.76188213e-05, 3.73853291e-05,
          2.57288611e-05, 1.32207961e-05, 9.36884771e-06, 9.43018131e-06,
          2.11777751e-05, 2.45193260e-05, 2.86499726e-05, 3.07670089e-05,
          3.32195596e-05, 3.28778005e-05, 2.83077461e-05, 1.90388928e-05,
          1.20346431e-05, 7.94043081e-06, 6.31938701e-06, 4.38667394e-06,
          1.01666762e-06, -4.54224437e-06, 4.13255329e-05,
          3.00424017e-05, 1.91692761e-05, 1.25413244e-05, 8.97714108e-06,
          1.35255304e-05, 1.93808228e-05, 2.59007447e-05, 2.48054093e-05,
          1.57787144e-05, 1.39743534e-05, 1.87160422e-05, 2.02277606e-05,
          3.01666278e-05, 3.69123736e-05, 4.41750235e-05, 5.25018004e-05,
          5.72675126e-05, 4.80851777e-05, 4.57217902e-05, 4.19351272e-05,
          3.27604139e-05, 1.20166551e-05, 3.39183352e-05, 3.73732928e-06,
          1.56118028e-06, -2.13322460e-06, -4.96628763e-06,
          2.78515159e-07, 1.07311610e-06, -9.98139149e-06,
          5.69567192e-07, 2.92743948e-06, -5.09303527e-06,
          -8.28914926e-06, -2.19978247e-05, -2.22844719e-05,
          3.43371516e-06, 1.44033484e-05, 1.82485819e-05, 1.69665182e-05,
          2.27224227e-05, 3.22472843e-05, 2.64077298e-05, 7.96654513e-06,
          3.75390186e-07, 1.31312026e-05, 2.90040607e-05, 3.30498806e-05,
          4.60787851e-05, 5.83521687e-05, 6.40800863e-05, 5.47835953e-05,
          4.77535832e-05, 3.60184058e-05, 1.75119003e-05, 1.13391761e-05,
          1.17861009e-05, 1.74551678e-05, 1.90909177e-05, 2.24715459e-05,
          2.85761053e-05, 3.72244831e-05, 3.21290572e-05, 2.78795487e-05,
          2.07391495e-05, 1.29743630e-05, 7.62139098e-06, 6.14232295e-06,
          4.78040783e-06, 1.69023554e-06, -4.71548992e-06,
          3.15733960e-05, 2.42895803e-05, 1.65990041e-05, 9.69625034e-06,
          7.64131346e-06, 1.80159441e-05, 2.61515816e-05, 3.41796294e-05,
          3.02792305e-05, 2.11738097e-05, 1.58982439e-05, 2.45685733e-05,
          2.39059718e-05, 2.59786011e-05, 3.57967547e-05, 4.10609973e-05,
          4.16731236e-05, 4.62360331e-05, 3.95341413e-05, 3.53758151e-05,
          3.75954405e-05, 3.22540400e-05, 2.90147127e-05, 3.56701712e-05,
          7.97366465e-06, -6.69549706e-07, -9.29231192e-06,
          -5.60730723e-06, 3.33161529e-06, -3.49790821e-06,
          -1.76933790e-05, -1.85645495e-05, -1.59654010e-05,
          -7.01964291e-06, -8.96081110e-06, -2.43085960e-05,
          -2.27858163e-05, 7.06022547e-08, -4.62831031e-06,
          -5.75850072e-06, 1.34163074e-05, 3.06145630e-05,
          3.79077464e-05, 3.60893100e-05, 1.75090863e-05, 1.09958637e-05,
          2.42563292e-05, 3.37374804e-05, 3.40287988e-05, 4.58377181e-05,
          4.66077145e-05, 5.50997902e-05, 5.53708232e-05, 5.37107917e-05,
          4.79951850e-05, 3.29119175e-05, 2.86423056e-05, 1.74694615e-05,
          1.62674896e-05, 2.35243624e-05, 2.29790548e-05, 2.55482737e-05,
          3.25371620e-05, 3.11295589e-05, 2.48100787e-05, 1.84748096e-05,
          1.32102905e-05, 8.73440604e-06, 6.32763931e-06, 4.79417622e-06,
          2.34814706e-06, -3.51764197e-06, 1.93183969e-05,
          1.45503082e-05, 8.69913129e-06, 3.09695452e-07,
          -8.64338404e-07, 7.88887610e-06, 1.83006687e-05,
          2.82050678e-05, 3.22270462e-05, 2.56065705e-05, 1.98522030e-05,
          3.28093956e-05, 3.14702811e-05, 3.12129014e-05, 3.37556448e-05,
          4.06203726e-05, 2.04054322e-05, 9.61802562e-06, 2.03449799e-05,
          1.64906069e-05, 1.80558764e-05, 3.29432623e-05, 3.19207938e-05,
          2.84721445e-05, 2.08962210e-05, 1.95784687e-05,
          -1.05061736e-05, -1.57697214e-05, -1.82519580e-05,
          -2.34480194e-05, -3.74839656e-05, -3.43612701e-05,
          -3.61041712e-05, -3.46372617e-05, -3.34732213e-05,
          -3.91872964e-05, -3.72817485e-05, -1.38068417e-05,
          -9.28166901e-06, -7.32130002e-06, 9.37544792e-06,
          2.45098436e-05, 3.66238964e-05, 3.52551069e-05, 2.88647680e-05,
          3.15554171e-05, 3.35111035e-05, 3.62101382e-05, 3.22096021e-05,
          3.08363233e-05, 3.40576626e-05, 4.18777963e-05, 4.96399152e-05,
          5.11156068e-05, 4.67791215e-05, 4.40330150e-05, 3.70035341e-05,
          3.08952149e-05, 2.18787973e-05, 2.62444155e-05, 2.77835934e-05,
          2.84808302e-05, 2.30925580e-05, 2.21726332e-05, 1.33135873e-05,
          1.09952707e-05, 9.85225324e-06, 9.53267318e-06, 8.86358703e-06,
          6.96782217e-06, 4.07428979e-06, -6.69053122e-07,
          1.07229998e-05, 6.39138716e-06, -1.16909860e-06,
          -3.77000401e-06, -5.95409210e-06, -7.93385152e-06,
          1.64741255e-06, 1.41652235e-05, 3.33071876e-05, 3.54212752e-05,
          2.95799327e-05, 3.61130042e-05, 3.82696453e-05, 2.86733339e-05,
          3.21312145e-05, 3.54873337e-05, 2.68416279e-05, 3.50845694e-05,
          4.01132966e-05, 2.44819657e-05, 1.08146069e-05, 1.76616650e-05,
          2.89316758e-05, 2.41576090e-05, 1.14307804e-05, 1.89619568e-05,
          -1.98888597e-06, -9.96318704e-06, -1.33243211e-05,
          -1.10234714e-05, -3.04588684e-05, -5.09554375e-05,
          -6.04539928e-05, -6.04968991e-05, -4.52662207e-05,
          -2.63266320e-05, -1.42019535e-05, -8.86879934e-06,
          -1.24139806e-05, -3.65825258e-06, 1.62951455e-05,
          1.69234245e-05, 2.18471305e-05, 3.46224842e-05, 4.16117728e-05,
          4.53935754e-05, 4.00736863e-05, 3.56758319e-05, 3.02694752e-05,
          1.65904112e-05, 1.98951329e-05, 2.61625082e-05, 3.67144858e-05,
          3.92952097e-05, 4.62497555e-05, 4.90541606e-05, 4.85358287e-05,
          4.16717048e-05, 3.50090268e-05, 3.59047990e-05, 3.49587790e-05,
          3.83343249e-05, 2.31621634e-05, 1.19130873e-05, 7.21320794e-06,
          5.45739397e-07, 7.42032626e-07, 6.28208591e-06, 7.67025722e-06,
          5.24579218e-06, 1.22305914e-06, -3.54271810e-06,
          4.27831424e-08, -2.16245894e-06, -3.48710614e-06,
          -7.35674121e-06, -9.11216011e-06, -8.94284949e-06,
          -4.31849867e-06, 1.35569153e-05, 3.03348315e-05,
          3.74409938e-05, 3.63748841e-05, 4.38031602e-05, 3.80404308e-05,
          3.51654635e-05, 3.57354438e-05, 3.58438374e-05, 2.69275388e-05,
          2.48088782e-05, 3.99050550e-05, 2.03986820e-05, 1.09780140e-05,
          9.92152491e-06, 1.51810418e-05, 1.21051908e-05, 1.01786491e-05,
          -2.71501176e-06, -7.42668226e-06, -3.61789716e-06,
          -1.98434664e-05, -8.02229079e-06, -2.46976160e-05,
          -5.50364748e-05, -6.48364075e-05, -4.53037792e-05,
          -3.84100422e-05, -2.12921732e-05, -1.81544838e-05,
          -2.76454211e-05, -7.70888437e-06, 6.66352344e-06,
          1.43422458e-05, 4.55722011e-06, 1.41065611e-05, 2.82990422e-05,
          3.28495480e-05, 2.90892749e-05, 3.17438753e-05, 3.20882064e-05,
          3.38243735e-05, 1.30846329e-05, 1.08174827e-05, 2.86219311e-05,
          1.74549659e-05, 1.77336296e-05, 2.92202312e-05, 4.37102790e-05,
          5.09767888e-05, 4.34882822e-05, 3.67248722e-05, 4.11207911e-05,
          4.35635520e-05, 4.56019952e-05, 3.38402824e-05, 1.11256413e-05,
          3.07919140e-06, -7.74649470e-06, -4.64645791e-06,
          2.24373275e-06, 2.12067766e-06, 5.73863588e-07,
          -1.03223067e-06, -5.19769355e-06, -8.89562853e-06,
          -9.08588481e-06, -8.23681239e-06, -7.98652854e-06,
          -4.11727478e-06, -9.55294809e-07, 8.65268612e-06,
          1.92352691e-05, 2.91391389e-05, 3.39103026e-05, 3.33541393e-05,
          4.11542023e-05, 4.12231784e-05, 4.19227908e-05, 4.17673982e-05,
          4.04914317e-05, 3.38776590e-05, 2.82656147e-05, 2.37574186e-05,
          1.39318627e-05, 6.01679221e-06, 4.96657276e-06, 4.53956517e-08,
          -1.56516980e-05, -2.22831713e-05, -1.86956222e-05,
          -1.70660005e-05, -6.20321362e-06, -2.32775146e-05,
          -1.30679755e-05, -3.06762595e-05, -4.58585237e-05,
          -4.82686846e-05, -3.95674542e-05, -2.86585764e-05,
          -1.76732883e-05, -2.32035745e-05, -2.87022158e-05,
          -1.90963565e-05, -2.73529167e-07, -5.01047225e-06,
          -4.08636697e-06, 1.70657877e-05, 2.76789124e-05,
          3.80655401e-05, 2.40354857e-05, 1.97379013e-05, 2.79083433e-05,
          1.75630757e-05, 1.73989647e-05, 1.63000514e-05, 8.88291561e-06,
          -4.38686811e-06, -1.79055257e-06, 5.76472348e-06,
          2.15606633e-05, 3.08163253e-05, 3.74847114e-05, 3.66581990e-05,
          4.60403971e-05, 4.88643891e-05, 4.89343147e-05, 3.19209175e-05,
          1.21606790e-05, 3.80348388e-06, -5.74905016e-06,
          -4.88293927e-06, -3.77032575e-06, -4.30523505e-06,
          -4.05866285e-06, -3.72900558e-06, -6.23476035e-06,
          -1.36528197e-05, -1.04073233e-05, -7.68649170e-06,
          -5.42996850e-06, -7.08600055e-07, 2.86067029e-06,
          1.30806375e-05, 2.38214252e-05, 2.98796167e-05, 2.84853577e-05,
          3.14903627e-05, 3.00992924e-05, 3.45997760e-05, 3.74492483e-05,
          3.33720454e-05, 3.42509484e-05, 2.66953884e-05, 2.56240746e-05,
          1.92075913e-05, 1.51892909e-05, 3.75295235e-06, 1.69146131e-06,
          -5.23341669e-06, -1.93665237e-05, -3.15809339e-05,
          -2.64914906e-05, -3.24530738e-05, -1.49018451e-05,
          -2.29674588e-05, -2.19387548e-05, -2.71256959e-05,
          -3.97958684e-05, -3.72856121e-05, -2.04541157e-05,
          -2.01132698e-05, -2.75255934e-05, -2.34403087e-05,
          -2.33370229e-05, 2.67828000e-06, 1.39158474e-05,
          4.76644527e-06, 5.51630865e-06, 1.92734442e-05, 1.10300598e-05,
          2.85508049e-05, 2.08979181e-05, 1.07094575e-05, 7.74875843e-06,
          -3.77390421e-07, -2.07375774e-06, 7.34385458e-06,
          -5.83373640e-06, -1.62304568e-05, -7.10259701e-06,
          3.77496212e-06, 1.61265762e-05, 2.30941150e-05, 3.08035378e-05,
          3.77350043e-05, 3.34484175e-05, 4.68507133e-05, 4.16210787e-05,
          2.61028745e-05, 9.31205068e-06, 1.75196783e-06,
          -8.59705597e-06, -9.37393725e-06, -1.30821863e-05,
          -9.77874879e-06, -7.11598886e-06, -5.08368748e-06,
          -5.63180220e-06, -9.66546395e-06, -3.36852418e-06,
          2.30052274e-06, 3.78114169e-06, 4.33642617e-06, 4.42385453e-06,
          6.02966020e-06, 1.10557921e-05, 1.92894095e-05, 2.18509358e-05,
          1.89183957e-05, 2.06240438e-05, 2.59909521e-05, 3.02550106e-05,
          2.90306725e-05, 2.92462610e-05, 1.65156944e-05, 1.33234334e-05,
          1.07154829e-05, -2.43708405e-06, -1.07801698e-05,
          -1.03918337e-05, -1.16106949e-05, -4.61499940e-06,
          -1.79131475e-05, -3.18438324e-05, -3.79471167e-05,
          -2.72369380e-05, -2.82290621e-05, -2.77227191e-05,
          -3.10348478e-05, -3.48471403e-05, -2.46098789e-05,
          -1.48810923e-05, -2.65978397e-05, -3.55361117e-05,
          -3.74273295e-05, -1.35435721e-05, 3.37485494e-06,
          1.02835593e-05, 2.89957029e-06, -5.47533500e-06,
          9.39307392e-06, 8.39466156e-06, 2.82186375e-06,
          -2.96352187e-06, -9.39266192e-06, 5.27016653e-07,
          3.11480244e-06, -9.14442990e-06, -2.35607185e-05,
          -1.57297109e-05, -2.17681845e-05, -6.13919781e-07,
          6.47674005e-06, 4.69350243e-06, 1.20948398e-05, 1.73615972e-05,
          3.58914258e-05, 2.98494688e-05, 2.52101836e-05, 2.21355676e-05,
          1.80292354e-05, 1.33184158e-05, 6.76541276e-06,
          -7.79545826e-06, -1.22378224e-05, -1.49400439e-05,
          -9.74438171e-06, -5.13230179e-06, -3.87454702e-06,
          -5.50850973e-06, -1.64306550e-06, 3.39370217e-06,
          6.82704513e-06, 9.47345870e-06, 1.03446919e-05, 7.88246689e-06,
          5.28344208e-06, 7.13509917e-06, 9.17793204e-06, 1.30551889e-05,
          5.10537757e-06, 1.38737569e-05, 2.52481823e-05, 3.60112499e-05,
          2.47507705e-05, 1.84507680e-05, 1.14233990e-05, 9.37464483e-06,
          9.37100936e-07, -6.46924900e-06, -6.76030868e-06,
          -3.46602155e-06, -9.01320345e-06, -1.00927418e-05,
          -2.27084784e-05, -3.80393831e-05, -4.69755469e-05,
          -2.89054169e-05, -1.94308905e-05, -3.40522747e-05,
          -2.95814843e-05, -3.19052997e-05, -2.75919483e-05,
          -2.70675228e-05, -3.64763255e-05, -5.05404532e-05,
          -5.46423616e-05, -3.66152271e-05, -6.18667400e-06,
          8.56759470e-07, 7.21505012e-06, -1.32840423e-05,
          -9.07765298e-06, -4.36602977e-06, -1.12084135e-05,
          -2.51243055e-05, -8.60644468e-06, 7.23675043e-07,
          -4.11414840e-06, -1.42125036e-05, -2.35011939e-05,
          -1.45534659e-05, -1.62249362e-05, -1.77255461e-05,
          -2.42167994e-06, 6.21579238e-06, 1.66224781e-05,
          1.21171443e-05, 3.06859474e-05, 3.10861142e-05, 2.54520928e-05,
          1.72817272e-05, 1.80657898e-05, 1.27207304e-05, 6.99486634e-07,
          -1.06272728e-05, -1.28676375e-05, -1.18415264e-05,
          -6.29419856e-06, -2.10553071e-06, -9.45816566e-07,
          -3.46751654e-06, 1.42720319e-05, 1.52485618e-05,
          1.41865930e-05, 1.41293967e-05, 1.39155563e-05, 1.08469985e-05,
          1.08837594e-05, 1.16705060e-05, 1.63884397e-05, 1.84446417e-05,
          1.02913154e-05, 1.29355631e-05, 2.59396256e-05, 3.03281649e-05,
          2.16452027e-05, 1.40054672e-05, 9.18056503e-06, 5.11691553e-07,
          -1.20264917e-06, -7.36690708e-06, -8.79857726e-06,
          -7.16026534e-06, -1.11129191e-06, -9.96892595e-06,
          -2.36771975e-05, -3.71439528e-05, -4.14333372e-05,
          -2.68175299e-05, -1.10849051e-05, -2.84369235e-05,
          -3.00125794e-05, -2.16700701e-05, -2.13189123e-05,
          -3.68796318e-05, -3.67303001e-05, -4.40955446e-05,
          -4.96941939e-05, -4.10986977e-05, -2.32756356e-05,
          -6.50469929e-06, 4.06464778e-06, -1.21819257e-05,
          -1.54727259e-05, -2.68551867e-05, -3.98341763e-05,
          -2.71508052e-05, -1.07790802e-05, -5.00909482e-06,
          -1.32258756e-05, -1.42649724e-05, -1.77878410e-05,
          -1.09414905e-05, -2.05200522e-05, -3.37777674e-05,
          -6.66937967e-06, 8.69083942e-06, 1.97731897e-05,
          1.55855778e-05, 3.08037925e-05, 3.15684774e-05, 2.70430191e-05,
          2.40247791e-05, 1.87009082e-05, 1.71073298e-05, 3.45246713e-06,
          -1.02183403e-05, -1.09336152e-05, -7.08930156e-06,
          -2.67913197e-06, -3.71635423e-07, 4.43045451e-07,
          -1.56960414e-06, 2.13135936e-05, 2.16409626e-05,
          1.96201418e-05, 1.70252679e-05, 1.56630485e-05, 1.53582860e-05,
          1.82100375e-05, 2.17268007e-05, 2.18213991e-05, 2.20014117e-05,
          2.09623977e-05, 1.78602695e-05, 2.46636573e-05, 2.12642190e-05,
          2.00827362e-05, 1.78242699e-05, 8.26246560e-06,
          -7.16537943e-06, -7.70371844e-06, -3.50200844e-06,
          -3.33430944e-06, -5.07849882e-06, 4.92772779e-06,
          5.61600837e-06, -1.22140809e-05, -3.48172034e-05,
          -3.48147369e-05, -2.02780029e-05, -1.06942944e-05,
          -1.95415796e-05, -3.54643344e-05, -3.53467294e-05,
          -2.31706526e-05, -2.71122972e-05, -4.17356168e-05,
          -3.61289458e-05, -5.98891420e-05, -4.93542539e-05,
          -3.66177701e-05, -1.91409235e-05, -1.15488492e-05,
          -2.11837396e-05, -2.91037250e-05, -5.02222938e-05,
          -5.26329204e-05, -2.97897295e-05, -2.22911531e-05,
          -1.75204732e-05, -1.74821216e-05, -1.95495413e-05,
          -1.72601613e-05, -9.77337913e-06, -6.93566290e-06,
          -8.66659684e-06, 1.58506396e-06, 7.18719048e-06,
          7.44466615e-06, 1.10828441e-05, 2.86117574e-05, 3.57005738e-05,
          2.52498558e-05, 2.41013386e-05, 2.18602581e-05, 1.60574273e-05,
          4.52119548e-06, -2.34266304e-06, -5.43483293e-06,
          -2.07920561e-06, -8.05551281e-07, 5.12951942e-07,
          1.61862010e-06, 2.30211344e-06, 1.79973013e-05, 1.96047640e-05,
          1.89066886e-05, 1.81360047e-05, 1.79855269e-05, 2.35237803e-05,
          2.92157729e-05, 2.89788768e-05, 2.38613229e-05, 2.39188103e-05,
          2.46128784e-05, 1.78820464e-05, 2.39551409e-05, 2.40269273e-05,
          2.03942072e-05, 8.70386975e-06, 2.04369917e-06, 3.36461426e-06,
          8.69867279e-07, 4.05517585e-06, -3.22512165e-06,
          -8.72433793e-06, 4.76230116e-06, 8.05215859e-06,
          -1.26405957e-05, -3.80922938e-05, -3.86968422e-05,
          -2.16641638e-05, -9.54573625e-06, 3.51206063e-06,
          -2.65538965e-05, -3.06801885e-05, -2.35527204e-05,
          -4.06861691e-05, -3.85795538e-05, -3.91522226e-05,
          -5.15829852e-05, -4.95847853e-05, -4.11232577e-05,
          -3.37516321e-05, -2.37765507e-05, -2.98616214e-05,
          -3.74577685e-05, -5.90667332e-05, -5.16100336e-05,
          -2.91389370e-05, -2.08115598e-05, -1.98169200e-05,
          -1.66488862e-05, -1.85538702e-05, -1.04361898e-05,
          -2.04409480e-06, -2.72247348e-06, -1.42539591e-06,
          1.77610800e-05, 1.42710287e-05, 9.14222346e-06, 1.04588389e-05,
          3.07768569e-05, 3.50544869e-05, 2.56597014e-05, 2.56816729e-05,
          2.09402879e-05, 1.96619403e-05, 7.56848294e-06,
          -2.10563371e-06, -6.54438372e-06, -3.50467076e-06,
          -3.18028219e-06, -2.66623283e-06, -5.56853593e-07,
          5.36422931e-06, 1.41373384e-05, 1.86279358e-05, 2.00815175e-05,
          2.08281144e-05, 2.39552173e-05, 2.86222476e-05, 2.80017648e-05,
          2.92368550e-05, 2.49050681e-05, 2.56186486e-05, 2.67080286e-05,
          1.54358022e-05, 2.06962104e-05, 2.53861672e-05, 1.94055719e-05,
          5.28728242e-06, -1.42970066e-06, 2.01312128e-06,
          1.64886035e-06, 7.23696814e-07, -4.45578235e-06,
          -9.40151040e-06, -7.24725578e-06, -7.53623954e-06,
          -1.48592881e-05, -2.80332151e-05, -2.50646608e-05,
          -1.82210388e-05, -1.71023439e-05, -3.46216621e-06,
          -1.64758130e-05, -1.85412027e-05, -2.91606812e-05,
          -5.11593935e-05, -5.08158264e-05, -4.98337249e-05,
          -4.99792077e-05, -5.86024908e-05, -5.35992840e-05,
          -4.59814655e-05, -3.45557601e-05, -2.73436981e-05,
          -2.72766374e-05, -3.70293747e-05, -3.98356678e-05,
          -3.19980572e-05, -2.34957661e-05, -1.90158189e-05,
          -1.79489234e-05, -1.58271760e-05, -4.99586440e-06,
          1.95638748e-07, 2.43047407e-06, 1.48694180e-05, 2.46083018e-05,
          2.74668546e-05, 1.62520046e-05, 8.70413078e-06, 3.49547699e-05,
          3.82679282e-05, 2.37480217e-05, 2.30635324e-05, 2.47857788e-05,
          1.41242217e-05, 8.44977876e-06, 1.61793594e-06,
          -3.99514693e-06, -1.24969779e-06, -6.56162911e-07,
          5.90916516e-09, 8.57316593e-07, 8.41191832e-06, 1.79234794e-05,
          2.19213107e-05, 2.56008407e-05, 2.86366758e-05, 2.89656673e-05,
          2.91919951e-05, 2.69685243e-05, 3.07488299e-05, 2.70563560e-05,
          2.61394798e-05, 3.00621377e-05, 2.78214902e-05, 1.88584872e-05,
          2.77492236e-05, 2.89069703e-05, 1.74209963e-05,
          -2.67644850e-06, 6.28427372e-08, -1.36759286e-06,
          -3.18888652e-07, -4.45260821e-06, -7.64707693e-06,
          -9.49790683e-06, -1.23545078e-05, -1.78892169e-05,
          -2.58739801e-05, -2.09765712e-05, -1.06873767e-05,
          -3.66826339e-06, -1.10351039e-05, -1.70757176e-05,
          -2.09600494e-05, -3.52386196e-05, -5.92649449e-05,
          -5.98138577e-05, -5.15209067e-05, -4.84938719e-05,
          -4.40388139e-05, -5.29812496e-05, -5.33083730e-05,
          -4.37156486e-05, -3.60475678e-05, -2.68814201e-05,
          -2.80996283e-05, -2.95804930e-05, -3.58510042e-05,
          -3.39685394e-05, -2.92299337e-05, -1.96276251e-05,
          -2.01221028e-05, -4.44147145e-06, -1.13859267e-06,
          1.07494143e-05, 1.92001044e-05, 2.29350262e-05, 1.76457688e-05,
          1.25944216e-05, 5.90082300e-06, 2.80901677e-05, 4.12076006e-05,
          3.20354266e-05, 2.82722285e-05, 2.47819953e-05, 1.96755991e-05,
          1.80066581e-05, 1.71604570e-05, 8.75259229e-06, 8.08942877e-06,
          6.67552376e-06, 5.86435544e-06, 3.54310237e-06, 8.48371019e-06,
          2.68049953e-05, 2.70217097e-05, 3.15020188e-05, 3.56420933e-05,
          3.35418117e-05, 3.05274771e-05, 2.93768226e-05, 2.64717473e-05,
          2.35990083e-05, 2.14528918e-05, 2.91212764e-05, 2.61409077e-05,
          1.60115051e-05, 2.03253840e-05, 2.75358270e-05, 2.00358900e-05,
          -7.93698916e-07, -4.21221512e-06, -4.77720960e-06,
          -6.89653280e-06, -1.58106814e-05, -1.70698258e-05,
          -8.71862449e-06, -9.00185114e-06, -1.60867603e-05,
          -2.17789857e-05, -2.21271330e-05, -2.35312018e-05,
          -3.41975974e-05, -2.23713760e-05, -2.19284102e-05,
          -2.95374266e-05, -2.86941558e-05, -5.02923322e-05,
          -5.82630819e-05, -3.39940561e-05, -3.40517545e-05,
          -3.41669693e-05, -3.88727130e-05, -5.70847005e-05,
          -5.81490967e-05, -4.09443855e-05, -3.55727934e-05,
          -3.31214542e-05, -3.81805075e-05, -4.18036943e-05,
          -4.00491081e-05, -2.42967053e-05, -1.91592535e-05,
          -2.27186410e-05, -1.98381949e-05, -1.24170820e-05,
          2.42964798e-05, 2.19982558e-05, 8.68859570e-06, 1.40647026e-05,
          1.31308680e-05, 1.71294614e-05, 2.47777698e-05, 3.73173643e-05,
          3.16134210e-05, 3.08320305e-05, 2.72960042e-05, 2.92721943e-05,
          2.77536528e-05, 3.27114431e-05, 3.28613205e-05, 2.50793182e-05,
          1.46596221e-05, 1.13769220e-05, 8.34468756e-06, 9.77912350e-06,
          2.60680317e-05, 2.62746562e-05, 3.10281212e-05, 3.72036666e-05,
          3.60050799e-05, 3.01306263e-05, 2.66183361e-05, 2.02518950e-05,
          2.08429192e-05, 2.42005317e-05, 2.66752322e-05, 2.22151830e-05,
          1.12646321e-05, 1.24626577e-05, 1.71043048e-05, 1.76479662e-05,
          -2.70108808e-06, -1.15751045e-05, -1.28086431e-05,
          -1.21778021e-05, -2.39658693e-05, -2.42510796e-05,
          -1.92673670e-05, -1.56683518e-06, -5.94885114e-06,
          -1.67525013e-05, -2.78426232e-05, -2.95801510e-05,
          -3.85325875e-05, -2.88838801e-05, -3.79898011e-05,
          -5.25314754e-05, -4.65201083e-05, -4.30838882e-05,
          -4.11060901e-05, -3.74420342e-05, -2.39488436e-05,
          -1.92993593e-05, -2.29634588e-05, -3.86956963e-05,
          -5.79121770e-05, -5.67225143e-05, -3.58553916e-05,
          -2.43120012e-05, -4.20753131e-05, -5.22520859e-05,
          -4.14096976e-05, -2.43576160e-05, -1.66708869e-05,
          -2.42574915e-05, -2.08955771e-05, 2.08213152e-07,
          2.92181230e-05, 2.20720613e-05, 1.68111128e-05, 1.80902662e-05,
          1.70288149e-05, 2.00948634e-05, 2.01984221e-05, 3.71553469e-05,
          3.19929313e-05, 2.62687408e-05, 2.79183005e-05, 3.28530950e-05,
          3.94220588e-05, 4.15460199e-05, 3.62888968e-05, 2.98365048e-05,
          2.21957453e-05, 1.74166653e-05, 1.44466221e-05, 1.28240554e-05,
          2.12777559e-05, 2.46177224e-05, 3.20674044e-05, 3.72423456e-05,
          3.62605497e-05, 2.85346214e-05, 2.28670851e-05, 2.04133175e-05,
          1.72797572e-05, 1.79952895e-05, 1.29962727e-05, 1.07061869e-05,
          1.03211996e-05, 6.93684979e-06, 9.73748411e-06, 1.44326777e-05,
          7.31957834e-06, -2.34771346e-06, -8.42578538e-06,
          -7.37270557e-06, -3.05010362e-05, -3.59200785e-05,
          -2.42069127e-05, -4.08979395e-06, -2.39849614e-05,
          -3.04764035e-05, -3.57831632e-05, -4.60259034e-05,
          -5.96727332e-05, -5.20093017e-05, -5.80451997e-05,
          -5.11293874e-05, -6.51875380e-05, -5.91963544e-05,
          -5.39686880e-05, -4.81604766e-05, -7.81906419e-06,
          -4.35029506e-06, -7.91115326e-06, -1.63152254e-05,
          -4.40499316e-05, -5.07216428e-05, -2.24312880e-05,
          -6.71882344e-06, -1.55633206e-05, -3.47758032e-05,
          -2.55136219e-05, -1.33087797e-05, -1.56014848e-05,
          -2.02406718e-05, -2.06462955e-05, -6.38776100e-06,
          2.78094467e-05, 3.73686307e-05, 2.89898562e-05, 1.56535389e-05,
          1.14055447e-05, 1.60108666e-05, 2.80599197e-05, 2.71192384e-05,
          3.50882110e-05, 3.13644741e-05, 2.87359308e-05, 3.36309604e-05,
          4.26387924e-05, 3.87167274e-05, 3.59259466e-05, 3.27300804e-05,
          2.71764675e-05, 2.56838266e-05, 2.30250680e-05, 1.96095225e-05,
          1.73867375e-05, 2.16205062e-05, 2.92277000e-05, 3.36454359e-05,
          3.38626851e-05, 3.31957272e-05, 2.92712975e-05, 2.01178991e-05,
          1.38975156e-05, 1.14571340e-05, 1.29331429e-05, 1.30359103e-05,
          1.53332549e-05, 8.69930864e-06, 1.31594616e-05, 1.50895430e-05,
          1.07647074e-05, 8.56412771e-06, -3.33822754e-06,
          -4.86606450e-06, -2.55442137e-05, -3.25524743e-05,
          -3.33884127e-05, -2.18020377e-05, -3.80722231e-05,
          -4.07352236e-05, -4.18326126e-05, -4.20442120e-05,
          -5.84862137e-05, -6.10433126e-05, -7.54980938e-05,
          -6.99105731e-05, -6.79332006e-05, -7.69854814e-05,
          -6.66477572e-05, -6.03883127e-05, -3.53584146e-05,
          -2.17677061e-05, -8.27855365e-06, -1.46325210e-05,
          -3.70527850e-05, -3.83561564e-05, -9.94623497e-06,
          4.70818759e-06, 2.17022603e-06, -1.15048870e-05,
          7.80271057e-06, 2.35593711e-06, -8.29817509e-06,
          -2.43419981e-05, -2.81681441e-05, -1.98530561e-05,
          4.60980891e-06, 3.50758455e-05, 3.18660714e-05, 1.81403830e-05,
          1.19680171e-05, 2.83622394e-05, 3.51194212e-05, 2.37340246e-05,
          2.96919607e-05, 2.48300694e-05, 3.07172013e-05, 2.41221314e-05,
          3.17612867e-05, 3.39618564e-05, 3.49077491e-05, 3.21090993e-05,
          3.24361099e-05, 3.47125751e-05, 3.32638156e-05, 2.78462394e-05,
          1.67846774e-05, 1.96711535e-05, 1.97698464e-05, 2.27192559e-05,
          2.23741026e-05, 2.44827643e-05, 2.11627776e-05, 7.93736581e-06,
          1.72504065e-06, 2.95300566e-07, 8.67407198e-06, 1.11712861e-05,
          1.53908568e-05, 1.53663204e-05, 1.96157798e-05, 8.76534523e-06,
          8.49455137e-06, 7.64325068e-06, -1.88606111e-06,
          -1.30270755e-05, -1.64729663e-05, -1.54677746e-05,
          -3.40809747e-05, -3.78989571e-05, -5.35070103e-05,
          -5.52268757e-05, -4.56119596e-05, -4.65453741e-05,
          -6.16622783e-05, -5.99647210e-05, -7.37344963e-05,
          -7.11163739e-05, -7.41639815e-05, -6.13913799e-05,
          -6.48365458e-05, -6.50538277e-05, -4.68571816e-05,
          -3.79532648e-05, -1.79557483e-05, -1.13595543e-05,
          -2.77519230e-05, -4.38397110e-05, -2.92046097e-05,
          -9.60735906e-06, -1.17276905e-07, 1.20555706e-06,
          1.46028906e-05, 1.52377606e-05, 1.79303006e-05,
          -2.44859234e-06, -3.80412962e-06, -8.76882552e-07,
          5.43639317e-06, 3.66939312e-05, 2.95762438e-05, 2.28331264e-05,
          1.65215406e-05, 2.02523661e-05, 1.14949926e-05, 1.51163886e-05,
          1.33491585e-05, 1.33206495e-05, 1.89730581e-05, 2.26207758e-05,
          2.37795884e-05, 2.33515420e-05, 2.63271268e-05, 2.97721963e-05,
          3.59350561e-05, 3.94355920e-05, 3.65322958e-05, 2.87657695e-05,
          1.20200193e-05, 1.07805672e-05, 8.46233434e-06, 6.03647550e-06,
          2.84375665e-06, 2.68560757e-06, -1.85723957e-06,
          -6.79781760e-06, -9.29023736e-06, -7.20289336e-06,
          1.35384403e-06, 5.91154958e-06, 8.95102403e-06, 9.67370761e-06,
          1.06663083e-05, 2.80389304e-06, 1.43082346e-07,
          -4.99744374e-07, 2.18736682e-06, -1.23585014e-05,
          -2.30543174e-05, -1.33699386e-05, -1.74783963e-05,
          -2.13798940e-05, -4.96827233e-05, -4.94387932e-05,
          -4.01120487e-05, -5.10558930e-05, -7.06292849e-05,
          -8.16306201e-05, -7.87289828e-05, -7.39948373e-05,
          -7.16850991e-05, -5.54743965e-05, -5.04995041e-05,
          -4.61434975e-05, -2.77150139e-05, -2.60320085e-05,
          -1.58818730e-05, -1.21361763e-05, -3.99614146e-06,
          -1.50606147e-05, -4.02951409e-05, -4.11569199e-05,
          -1.21748180e-05, 1.12263942e-05, 2.87750245e-05,
          2.15143318e-05, 1.44504320e-05, 4.22806215e-06, 3.24107032e-06,
          1.96643741e-05, 9.90614171e-06, 2.73588867e-05, 3.08935923e-05,
          2.89667205e-05, 1.95287648e-05, 1.31696543e-05, 2.36206688e-06,
          5.86150190e-06, 1.59033007e-05, 1.91814433e-05, 1.79540384e-05,
          1.94078675e-05, 1.55832986e-05, 1.23096670e-05, 1.31828137e-05,
          1.96502024e-05, 2.69489356e-05, 2.94478741e-05, 2.49575005e-05,
          1.90297887e-05, 9.35444314e-06, 5.99764917e-06, 4.09569338e-07,
          -4.66174060e-06, -1.14051472e-05, -1.40095271e-05,
          -1.44180749e-05, -1.22699585e-05, -1.00951329e-05,
          -8.52381072e-06, -6.62532875e-06, -7.33978425e-07,
          1.97372879e-06, -1.82126189e-06, 2.32415618e-06,
          5.25156383e-06, -8.47114825e-06, -5.31270007e-06,
          -1.31817626e-06, -5.73433863e-06, -1.66713307e-05,
          -6.53077723e-06, -2.72455072e-05, -2.93032099e-05,
          -4.15436989e-05, -4.91584833e-05, -5.13600899e-05,
          -5.73912039e-05, -6.97910218e-05, -7.11071625e-05,
          -6.31623770e-05, -5.02525982e-05, -3.56520286e-05,
          -4.02275109e-05, -4.19034259e-05, -2.37746772e-05,
          -2.18113073e-05, -3.08012532e-05, 8.23309563e-08,
          3.09267364e-07, -2.44609259e-06, -1.30686640e-05,
          -3.13439559e-05, -1.94325585e-05, -1.03374668e-05,
          9.15707096e-06, 3.23102940e-05, 2.19577851e-05, 1.51793290e-06,
          5.66135395e-06, -4.02494061e-06, -1.32946225e-05,
          -6.43814110e-06, 1.47369656e-05, 1.66437967e-05,
          1.45502663e-05, 1.85762729e-05, 3.80395522e-06, 1.81922996e-06,
          1.11571298e-05, 2.50636294e-05, 2.82208330e-05, 1.89234397e-05,
          1.66173813e-05, 1.02921331e-05, 6.00938574e-06, 5.98002043e-06,
          1.04663077e-05, 1.50635460e-05, 1.51568001e-05, 1.19788629e-05,
          8.47980664e-06, 3.90777541e-06, 1.23108282e-06,
          -4.17219871e-06, -1.07293135e-05, -1.75804580e-05,
          -1.75642199e-05, -1.62092765e-05, -9.91611432e-06,
          -7.95075539e-06, -1.02775848e-05, -1.14807635e-05,
          -6.03580565e-06, -1.00860098e-06, -9.64395326e-07,
          -3.16135765e-06, 3.75708510e-06, 2.04594517e-06,
          -2.38680150e-06, -2.04051721e-05, -1.29086211e-05,
          -1.15937428e-05, -2.02996689e-05, -2.36920550e-05,
          -2.89638047e-05, -3.31730262e-05, -5.36565458e-05,
          -5.92934557e-05, -6.40435173e-05, -5.64975089e-05,
          -3.93870796e-05, -4.31408116e-05, -4.17877782e-05,
          -2.91233700e-05, -2.76101273e-05, -3.24960420e-05,
          -2.10818671e-05, -1.70523945e-05, -1.80515854e-05,
          1.13838450e-05, 1.82428739e-05, 7.32159015e-06,
          -1.66081245e-05, -4.43879071e-05, -2.94220736e-05,
          -1.20640489e-05, 3.30063631e-06, 2.98998348e-05,
          2.11688621e-05, 4.97723613e-06, 4.91242690e-06, 1.94053746e-06,
          -2.12830673e-06, -2.85584883e-06, -4.78615357e-06,
          4.82780024e-06, 2.27942619e-05, 1.44513224e-05,
          -1.94506561e-06, 2.05189244e-05, 3.49492984e-05,
          3.25679721e-05, 3.69471745e-05, 3.70393645e-05, 2.37940640e-05,
          8.14503710e-06, 2.59441731e-06, 3.03580009e-06, 4.99143198e-06,
          7.12191104e-06, 5.46759111e-06, 2.62768481e-06, 5.24662084e-07,
          -5.89735509e-06, -4.50653351e-06, -8.23018036e-06,
          -1.28550564e-05, -1.69908635e-05, -1.61060743e-05,
          -1.34912134e-05, -7.04626200e-06, -3.63483082e-06,
          -4.72434158e-06, -4.25704138e-06, -2.98323243e-06,
          6.85556643e-06, 4.75612660e-06, 7.08403559e-06, 4.37994595e-06,
          2.20551692e-06, 3.17408126e-06, 8.43594080e-07,
          -7.06223364e-06, -9.91075558e-06, -2.22708022e-05,
          -1.83822485e-05, -2.15885066e-05, -3.59212754e-05,
          -4.69520237e-05, -5.42790149e-05, -5.35572035e-05,
          -5.17153676e-05, -4.15569739e-05, -3.91919457e-05,
          -2.41997277e-05, -3.17336053e-05, -3.34822471e-05,
          -4.41364355e-05, -3.72081922e-05, -3.53953728e-05,
          -3.59720070e-05, -1.21266721e-05, 9.66563675e-06,
          3.53425457e-06, -1.05649233e-05, -2.75262337e-05,
          -2.71581157e-05, -2.16667868e-05, 7.86566306e-06,
          2.66829793e-05, 1.20075683e-05, 7.67517304e-06, 5.36550488e-06,
          1.39122976e-05, 1.06701245e-05, -3.75947366e-06,
          1.22878964e-06, 6.44276543e-06, 3.04864316e-05, 2.47245698e-05,
          2.20837555e-05, 2.63927086e-05, 4.84236334e-05, 5.43019014e-05,
          5.30370526e-05, 4.27446903e-05, 3.31213269e-05, 2.35331318e-05,
          7.38512563e-06, 2.38513053e-06, 2.60193042e-06, 2.71817180e-06,
          1.90527055e-06, 1.29577938e-06, 1.03091566e-06,
          -1.04616747e-05, -8.24358540e-06, -9.19212835e-06,
          -1.15107132e-05, -1.45448266e-05, -1.26205960e-05,
          -9.20420825e-06, -2.19969866e-06, 7.07274353e-07,
          2.84638145e-06, 1.86309762e-06, -1.98150838e-06,
          4.69287579e-06, 5.62102105e-06, 1.00996685e-05, 6.26918336e-06,
          6.80336689e-06, 8.64421963e-06, -3.09350321e-06,
          -6.06593630e-07, -1.79213675e-05, -3.59415026e-05,
          -1.85036679e-05, -2.03299296e-05, -3.54827171e-05,
          -4.48306382e-05, -4.60069714e-05, -3.96257128e-05,
          -5.72451099e-05, -3.81850259e-05, -2.39346737e-05,
          -3.17633749e-05, -4.52557288e-05, -4.33225759e-05,
          -4.63696633e-05, -4.22085031e-05, -3.75963064e-05,
          -3.45552835e-05, -1.57424474e-05, -7.58451870e-06,
          -4.32551815e-07, -1.66482114e-05, -3.23840031e-05,
          -3.72137038e-05, -1.65434849e-05, 2.46158052e-05,
          2.64277714e-05, -4.18522677e-06, -1.41004539e-05,
          -8.48876789e-06, 1.59149076e-05, 1.53461770e-05,
          8.40691791e-06, 1.61728367e-05, 3.23231211e-06, 2.10794879e-05,
          1.68135521e-05, 3.13840828e-05, 3.21038206e-05, 4.06319268e-05,
          4.27324703e-05, 3.97027652e-05, 3.08209492e-05, 2.27698420e-05,
          1.59105093e-05, 7.33167735e-06, 6.47897468e-06,
          -6.38642206e-08, -9.57560587e-07, -2.53074700e-06,
          -1.49010702e-06, 1.39673045e-06, -6.12205667e-06,
          -5.81344966e-06, -6.56478551e-06, -8.33006106e-06,
          -1.04832998e-05, -9.84244798e-06, -6.10494817e-06,
          1.75759979e-07, 3.32312447e-06, 4.56895077e-06, 3.94566314e-06,
          5.41783447e-06, 6.63668470e-06, 2.03909372e-06, 6.20278115e-06,
          8.01718761e-06, 3.66916333e-06, 1.83215855e-06,
          -1.00319630e-05, -4.19979597e-06, -2.09747195e-05,
          -3.88152475e-05, -1.23242799e-05, -2.69381526e-05,
          -3.51096169e-05, -3.70616435e-05, -3.02969347e-05,
          -2.84767048e-05, -3.21912958e-05, -3.09523784e-05,
          -2.31372851e-05, -4.67432219e-05, -5.61083289e-05,
          -4.19050884e-05, -4.46623926e-05, -3.11115909e-05,
          -2.42388087e-05, -1.82946642e-05, -9.43815758e-06,
          -1.25900979e-05, -9.87343901e-06, -1.63946424e-05,
          -2.59846074e-05, -2.92337772e-05, -6.03818262e-06,
          -2.58537284e-06, -4.27890473e-06, -3.21243788e-05,
          -3.35472650e-05, -2.99701387e-05, 6.05397690e-06,
          6.96922962e-06, 6.74908915e-06, 5.32799822e-06, 3.91726689e-06,
          8.76245940e-06, 1.27930043e-05, 2.05083998e-05, 2.37200184e-05,
          3.49614565e-05, 2.73071819e-05, 2.02307037e-05, 1.20614341e-05,
          6.99276734e-06, 9.39143774e-06, 9.55042560e-06, 2.44713215e-06,
          -5.16814589e-06, -6.61100876e-06, -7.80780465e-06,
          -7.68060727e-06, -3.21041239e-06, -3.24967482e-06,
          -3.77809397e-06, -5.30682746e-06, -7.39951429e-06,
          -8.79257459e-06, -8.71761131e-06, -5.54173312e-06,
          -2.84862426e-06, -2.44399212e-06, 8.67859171e-08,
          2.43541876e-06, 6.58737781e-06, 9.73894839e-06, 4.34522417e-06,
          1.45371052e-06, 8.87408805e-06, 3.06535571e-06,
          -1.46237262e-05, -1.29090949e-05, -9.11622010e-06,
          -2.62120720e-05, -2.14753290e-05, -7.07484242e-06,
          -2.71397203e-05, -4.20673387e-05, -3.30369767e-05,
          -2.00283248e-05, -1.67772614e-05, -1.18256312e-05,
          -2.49592063e-06, -2.59986700e-05, -4.01033249e-05,
          -3.62336395e-05, -2.79539418e-05, -2.08504498e-05,
          -1.25851038e-05, -1.75711102e-05, -2.27671735e-05,
          -1.69347477e-05, -1.26651112e-05, -1.64200537e-05,
          -2.07402700e-05, -1.56758506e-05, -1.58956736e-05,
          -2.05968463e-05, -2.24817795e-05, -1.42348536e-05,
          -2.39972524e-05, -2.52500049e-05, -2.34558702e-05,
          -1.93402883e-07, 1.54422207e-06, 2.05864417e-05,
          1.10067795e-05, 6.03929311e-06, 8.68438110e-06, 8.84038491e-06,
          9.01620660e-06, 1.54223344e-05, 2.74213107e-05, 1.84314649e-05,
          7.63458411e-06, 3.37882921e-06, -7.25396058e-06,
          -5.07184404e-06, -5.45971625e-06, -1.11413271e-06,
          -4.51598407e-06, -5.58143893e-06, -7.12935480e-06,
          -7.03602745e-06, -3.77282663e-06, -1.05692175e-06,
          -2.22408721e-06, -3.01477121e-06, -5.30859688e-06,
          -6.24623954e-06, -6.45856244e-06, -4.16680132e-06,
          -3.40645420e-06, -3.01768159e-06, -1.95200528e-06,
          -3.52749851e-07, 4.34829781e-06, 8.36845174e-06,
          2.21901951e-06, -2.62592926e-06, -1.49038976e-06,
          3.07443293e-06, -3.99666851e-06, -1.42327808e-05,
          -8.72140390e-06, -2.88779102e-05, -1.39156937e-05,
          -1.50866217e-05, -2.19912836e-05, -3.82710095e-05,
          -3.15176294e-05, -1.69684281e-05, -1.50925416e-05,
          -4.86892895e-06, 1.98800753e-05, -2.35559837e-05,
          -4.31349872e-05, -4.33397217e-05, -3.71982242e-05,
          -2.15544205e-05, -1.02805807e-05, -1.09302619e-05,
          -6.12569374e-06, -2.25263302e-05, -1.95435332e-05,
          -6.19225057e-06, -1.42509189e-05, -1.44667956e-05,
          -1.23775062e-05, -2.80784388e-05, -1.78755563e-05,
          -1.17559084e-05, -1.89808306e-05, -2.51366801e-05,
          -1.93094202e-05, -1.55258531e-05, -6.81116580e-06,
          1.30641465e-05, 3.33086564e-06, -9.51632319e-06,
          -6.09587005e-07, 2.08334654e-06, 3.23671634e-06,
          4.03231479e-06, 2.60656871e-05, 8.57793202e-06,
          -3.91439335e-06, -4.81824884e-07, 1.27205112e-06,
          -8.64231515e-06, -1.13197584e-05, -4.74291073e-06,
          -1.79677909e-06, -1.12588521e-06, -2.54594238e-06,
          -2.67206428e-06, -2.00274803e-06, 2.78890320e-06,
          5.08580285e-07, -9.36536765e-07, -1.89542664e-06,
          -2.13543444e-06, -1.54814006e-06, -1.19958042e-06,
          -1.91883260e-06, -2.65176232e-06, -1.82410054e-06,
          -5.75859758e-07, 4.51248115e-06, -6.38071526e-07,
          -3.64087055e-06, -9.04051012e-06, -8.19275101e-06,
          3.48148575e-07, 8.14603573e-06, -2.12776995e-05,
          -1.88932954e-05, -2.38442972e-05, -2.24867690e-05,
          -2.15920445e-05, -2.08499841e-05, -2.99235999e-05,
          -2.46760683e-05, -5.99190389e-06, -8.19474462e-06,
          7.27690849e-06, 5.31736441e-06, -2.98692066e-05,
          -4.98006193e-05, -4.59003240e-05, -3.14432946e-05,
          -2.06687564e-05, -1.87550777e-05, -9.19720969e-06,
          1.07845417e-05, 5.83777046e-06, -7.97175016e-06,
          -2.73034966e-05, -3.35615696e-05, -2.03148811e-05,
          -9.32410421e-06, -2.22828075e-05, -2.77738545e-05,
          -6.81036408e-06, -6.73860995e-06, -3.41458217e-05,
          -2.83852842e-05, -2.71934296e-05, 1.84697697e-07,
          -6.67034055e-06, -1.70127278e-05, -1.11851532e-05,
          -9.95113351e-06, 4.54916608e-06, 4.68022199e-06,
          -1.47684182e-06, 5.94830271e-06, 2.48193669e-06,
          -9.26156827e-06, -2.12564214e-06, 9.85282441e-06,
          -4.24947984e-07, -1.20614723e-05, -7.35440699e-06,
          -2.66646521e-06, 2.69926022e-06, 5.95203755e-06,
          5.49339802e-06, 3.94355266e-06, 1.85297597e-06, 1.34314712e-06,
          1.21752896e-06, 1.13244243e-06, 2.48389938e-06, 3.05310959e-06,
          6.19848720e-07, -1.43098305e-06, -1.87632907e-06,
          9.25599920e-07, 4.10667235e-06, 7.58618762e-06, 2.17054918e-07,
          -5.35544859e-06, -1.27284984e-05, -1.31054003e-05,
          -1.36256688e-06, 9.47927947e-06, 3.26347845e-07,
          -2.19267349e-05, -1.99975748e-05, -4.30742184e-05,
          -3.05323701e-05, -2.87182684e-05, -2.24214200e-05,
          -1.20015447e-05, -8.61369003e-08, -8.95135599e-06,
          -4.42345936e-06, -1.87276819e-05, -3.73440744e-05,
          -5.07091900e-05, -4.75054439e-05, -2.76686496e-05,
          -2.47577482e-05, -1.99269398e-05, -1.56990136e-05,
          -1.33122307e-06, -1.77152526e-06, -1.99850256e-05,
          -4.20726938e-05, -3.49494512e-05, -1.12564094e-05,
          -1.25404104e-05, -2.97621773e-05, -1.37232901e-05,
          1.11282206e-05, 7.21624247e-06, -1.18721764e-05,
          -9.08610400e-06, -1.61527059e-05, 2.99026794e-08,
          -9.78516982e-06, -2.48365905e-05, -4.75363013e-05,
          -1.71914617e-05, 7.24221809e-06, 2.06353070e-05,
          1.29063692e-05, 5.66883591e-06, -8.86122143e-06,
          -3.88416356e-06, 7.66834728e-06, 1.81998312e-05,
          1.28126576e-05, -2.57563488e-06, -6.58265481e-06,
          -2.71949125e-06, 3.37287179e-06, 9.85769657e-06,
          1.15009652e-05, 1.06113530e-05, 2.22469566e-06, 3.51317635e-06,
          3.34454921e-06, 3.01886507e-06, 2.06069808e-06, 1.99880196e-06,
          -1.20387017e-06, -9.75541752e-07, 1.69106852e-06,
          6.57591909e-06, 8.21601679e-06, 7.10268523e-06,
          -4.58266953e-07, -1.05969448e-05, -1.96487690e-05,
          -2.44922248e-05, -1.66068548e-05, 1.54818269e-06,
          7.23288679e-07, -1.89018010e-05, -1.92139851e-05,
          -3.99483506e-05, -3.50964183e-05, -3.09725438e-05,
          -1.63014611e-05, -9.74887007e-06, -2.99785529e-06,
          -1.03256662e-05, -2.59016342e-05, -3.71740098e-05,
          -4.25448961e-05, -4.63289252e-05, -4.40148833e-05,
          -3.67313696e-05, -2.45711599e-05, -1.99007245e-05,
          -1.15564853e-05, -1.25628389e-06, 1.34493594e-05,
          4.85966757e-06, -2.11714159e-05, -2.40430254e-05,
          -9.09901985e-07, -7.38149083e-06, -1.86606085e-05,
          -8.80721655e-06, 2.19760623e-05, 1.09858620e-05,
          6.82101972e-06, -8.41610108e-06, -2.24330961e-05,
          1.00739874e-06, -6.82610516e-06, -3.56768069e-05,
          -5.49290016e-05, -8.30961199e-06, 6.82323980e-06,
          1.23374102e-05, 4.48363335e-06, 1.29468361e-07, 9.81064431e-07,
          4.20338893e-06, 9.58129112e-06, 2.30715923e-05, 1.35480004e-05,
          4.22823950e-06, -1.97272675e-06, -8.98980431e-07,
          3.37589722e-06, 8.75304704e-06, 9.96784820e-06, 1.14429913e-05,
          -4.17351735e-08, 1.43767591e-06, 3.24157526e-07,
          -2.26729162e-06, -5.28327973e-06, -5.81678160e-06,
          -5.70158591e-06, -3.57074055e-06, 9.21036133e-07,
          5.07446293e-06, 3.00925012e-06, -1.99773376e-06,
          -1.04749497e-05, -1.69161813e-05, -1.67952094e-05,
          -1.37830530e-05, -1.62380584e-05, -1.65274942e-05,
          -1.40562806e-05, -1.95668545e-05, -1.88190934e-05,
          -3.43365646e-05, -2.58268228e-05, -1.79031085e-05,
          -2.96725048e-05, -4.29977481e-05, -2.98352988e-05,
          -2.43997056e-05, -2.53878879e-05, -3.47178429e-05,
          -3.78344303e-05, -4.36052833e-05, -3.71353854e-05,
          -3.11116200e-05, -2.50511166e-05, -8.53335041e-06,
          5.57029125e-06, 5.82211123e-06, -6.43367343e-07,
          3.42671092e-06, 2.21018799e-05, 8.89716830e-06,
          -7.41156282e-06, -1.71202701e-05, -1.89022285e-05,
          -3.18200614e-06, 1.63893055e-05, 1.76418653e-05,
          6.84129782e-06, -1.32576706e-05, -6.63205810e-06,
          1.45072900e-05, -9.39602251e-06, -4.56175694e-05,
          -5.05124262e-05, -1.00015668e-05, 1.02535687e-05,
          9.96209837e-06, 2.26361476e-06, 9.89134378e-07, 2.92196319e-06,
          4.76172545e-06, 4.13168254e-06, 2.87142175e-05, 2.11913521e-05,
          8.05016498e-06, -7.92290336e-07, 3.59892147e-06,
          5.54850794e-06, 6.44308739e-06, 5.66235803e-06, 6.78318474e-06,
          -9.18926526e-06, -7.44738782e-06, -6.14572400e-06,
          -5.65448272e-06, -6.33253876e-06, -6.24778386e-06,
          -5.14509611e-06, -3.42259818e-06, -1.87931334e-06,
          -2.92774803e-06, -7.54483608e-06, -1.07662572e-05,
          -1.57148079e-05, -1.68720217e-05, -1.01416126e-05,
          -5.45940293e-06, -1.84416949e-05, -2.10420112e-05,
          -9.91778506e-06, -1.56853348e-05, -2.95881837e-05,
          -2.63797101e-05, -3.29426039e-05, -2.29967591e-05,
          -3.46148736e-05, -3.79513403e-05, -3.23080494e-05,
          -2.29297002e-05, -2.90609150e-05, -2.40374666e-05,
          -2.88625397e-05, -3.57020108e-05, -3.15225298e-05,
          -2.08610545e-05, -1.54348454e-05, 1.43316106e-06,
          6.82985865e-06, -1.18165262e-05, -7.97892153e-06,
          3.79820358e-06, 1.35988839e-05, 5.02095645e-06,
          -6.89155468e-06, -1.59073497e-05, -6.20594392e-06,
          1.23100590e-05, 3.31007723e-05, 1.93060696e-05, 3.22273240e-06,
          3.10514906e-06, 1.14359100e-05, 5.63126946e-07,
          -2.34200015e-05, -4.18756645e-05, -3.96929318e-05,
          -2.66052393e-05, 9.54562935e-08, 1.19689821e-05,
          1.52959165e-05, 1.48350809e-05, 9.84584130e-06, 8.59809188e-06,
          -7.79252059e-06, 2.03303989e-06, 1.38058485e-05,
          8.52524408e-07, -1.88486581e-06, 5.89604088e-06,
          9.71327336e-06, 9.72158796e-06, 8.78105948e-06, 9.13099666e-06,
          -1.65242909e-05, -1.24208564e-05, -6.97171618e-06,
          -1.71857357e-06, -2.56657222e-06, -4.43984754e-06,
          -3.83163069e-06, -3.77723359e-06, -4.27749364e-06,
          -7.78088088e-06, -1.33541453e-05, -1.32348150e-05,
          -1.30402259e-05, -1.04753490e-05, -8.34749585e-07,
          5.43003671e-06, 7.81033305e-06, 6.27626332e-06,
          -1.69111377e-06, -2.07415305e-05, -5.11123872e-05,
          -4.96726643e-05, -4.02869264e-05, -2.74152699e-05,
          -2.80647873e-05, -2.52893515e-05, -2.56242856e-05,
          -2.36497835e-05, -2.13107433e-05, -1.60032014e-05,
          -2.36837714e-05, -2.80866952e-05, -2.63222246e-05,
          -2.10815888e-05, -1.43591951e-05, 9.16181853e-06,
          1.30508070e-05, 9.42973384e-06, 6.87908232e-06, 6.84870747e-06,
          1.20407194e-05, -1.18322805e-05, -1.02952872e-05,
          -2.34364943e-05, -1.44952191e-05, 6.34776870e-06,
          2.09078371e-05, 8.33767444e-06, -6.99273278e-06,
          -1.65219876e-06, 2.53895651e-05, -2.19029243e-06,
          -1.52911489e-05, -3.24716602e-05, -5.11921862e-05,
          -2.93795001e-05, -3.09429925e-06, 5.92189281e-06,
          3.59055252e-06, 4.19028822e-07, 4.40806298e-06, 8.78751052e-06,
          -2.19109984e-06, -7.70734550e-06, -5.91904109e-06,
          -2.43291333e-06, -1.87038779e-06, -1.62345350e-06,
          1.19153447e-05, 1.59875526e-05, 1.57538525e-05, 1.38605219e-05,
          -1.94887925e-05, -1.21629100e-05, -5.90638638e-06,
          -1.13480201e-06, -3.10357291e-06, -7.49533547e-06,
          -7.35031972e-06, -7.16309887e-06, -1.09323755e-05,
          -1.52063849e-05, -1.19284214e-05, -6.12101940e-06,
          -8.88090381e-06, -6.41236738e-06, 1.08535651e-05,
          1.26942132e-05, 6.68880193e-06, 3.47379819e-06,
          -1.66038953e-05, -2.74759786e-05, -4.00266472e-05,
          -3.68690999e-05, -3.59654950e-05, -3.04320147e-05,
          -2.97800907e-05, -2.33447518e-05, -1.75458754e-05,
          -1.91058043e-05, -2.44666098e-05, -2.38400389e-05,
          -2.98417708e-05, -3.49109905e-05, -3.38922691e-05,
          -2.29090529e-05, -1.88418574e-06, 1.46342009e-05,
          1.68533716e-05, 7.18658748e-06, 1.50634687e-05, 6.29470196e-06,
          7.93003164e-06, -1.36805629e-05, -1.71179981e-05,
          -3.51188792e-05, -1.68874685e-05, -1.40820305e-06,
          1.58771691e-05, 7.66859557e-06, 1.23594227e-05, 2.05621054e-05,
          2.81445828e-05, -6.31681542e-06, -1.07785690e-05,
          -1.57391587e-05, -2.97032293e-05, -1.95283083e-05,
          -9.23980133e-06, 8.59371812e-06, -1.69651673e-06,
          -1.93645083e-05, -1.27030680e-05, 6.51182881e-06,
          -7.13379586e-06, -1.28640613e-05, -1.18637763e-05,
          -9.10893050e-06, -8.71893553e-06, -7.54027315e-06,
          3.56234045e-06, 1.69473096e-05, 1.96135952e-05, 1.94819422e-05,
          -1.81499126e-05, -1.09859348e-05, -5.09198117e-06,
          -1.11633221e-06, -3.02916123e-06, -8.27611075e-06,
          -7.85181510e-06, -1.00947773e-05, -1.07830383e-05,
          -8.49683965e-06, -7.25798463e-06, -2.55290593e-06,
          -4.32668821e-06, -1.92585435e-06, 1.00375264e-05,
          8.62593060e-06, -9.96447170e-07, -3.14691852e-06,
          -1.62973683e-05, -3.03647939e-05, -2.94126166e-05,
          -3.18705679e-05, -3.28681308e-05, -4.34092181e-05,
          -3.94955387e-05, -2.12222003e-05, -1.36484396e-05,
          -1.24086400e-05, -2.13658277e-05, -2.04190692e-05,
          -3.10982759e-05, -3.29179020e-05, -2.09517148e-05,
          -1.02878357e-05, -4.81628967e-06, -1.24712124e-05,
          -7.37918845e-06, -1.08817758e-05, 2.28594836e-05,
          2.64426399e-05, 3.29392515e-06, -1.77086640e-05,
          -1.35088976e-05, -1.90468891e-05, -1.64040193e-05,
          -1.12392845e-05, 2.69142674e-07, 6.34982271e-08,
          -6.42578607e-06, 8.32117075e-06, 2.88245501e-05,
          8.92652952e-06, -1.28090396e-05, -2.33913252e-05,
          -3.41705236e-05, -2.38101511e-05, -1.71477132e-05,
          -1.60835989e-05, -1.16029751e-05, -2.35604894e-05,
          -2.11651859e-05, -1.41060109e-05, -2.16102799e-05,
          -1.86865454e-05, -1.80273983e-05, -1.42874806e-05,
          -1.27350586e-05, -1.03985203e-05, -2.94382767e-06,
          1.52953089e-05, 2.18184578e-05, 2.51241763e-05,
          -1.47085502e-05, -8.25261031e-06, -3.16394403e-06,
          -9.63932393e-07, -8.12864073e-07, -4.65138510e-06,
          -3.11689746e-06, -4.16693729e-06, -3.80266442e-06,
          -2.03194190e-06, -3.26905774e-06, -1.34088395e-06,
          -5.81004360e-06, -2.80583049e-06, 8.67106701e-06,
          2.60132515e-06, -1.19369111e-06, -3.73265493e-06,
          -8.90745105e-06, -3.42963831e-05, -4.29290849e-05,
          -4.00147692e-05, -3.56688979e-05, -3.47807327e-05,
          -3.48034373e-05, -2.94108122e-05, -1.93255346e-05,
          -1.29771524e-05, -1.71536794e-05, -2.37404674e-05,
          -2.16616718e-05, -2.10128801e-05, -1.26110908e-05,
          -9.59725548e-06, -3.39350868e-06, -5.92092829e-06,
          -2.16098051e-05, -1.19049582e-05, 2.57853644e-05,
          2.55821069e-05, 2.79370870e-05, -5.59976343e-06,
          -1.61145599e-05, -1.14587181e-06, -1.35477949e-05,
          -2.43529885e-05, -2.52644568e-05, -1.65848196e-05,
          -3.33845383e-05, -1.52731100e-05, 1.57293689e-05,
          5.11473536e-06, -3.17552367e-05, -4.39407559e-05,
          -4.39112227e-05, -3.18698621e-05, -2.13333442e-05,
          -2.72399193e-05, -2.63858547e-05, -3.28972383e-05,
          -2.47738808e-05, -2.43391023e-05, -2.45520114e-05,
          -2.03995405e-05, -1.98828002e-05, -1.61799653e-05,
          -1.27705625e-05, -1.02025351e-05, -5.00131364e-06,
          1.09176535e-05, 1.60776017e-05, 1.83855464e-05,
          -8.55608323e-06, -3.26093823e-06, 1.57056900e-06,
          4.60489991e-06, 4.29701004e-06, 2.96214080e-06, 3.04748619e-06,
          1.63227787e-06, -1.11561792e-06, 1.57584608e-07,
          -5.21209586e-07, -4.20574497e-06, -9.23113839e-06,
          -3.52726670e-06, 9.25910444e-06, 1.34707234e-05,
          7.75465196e-06, 6.17575949e-07, -2.37758150e-06,
          -1.71430820e-05, -4.33859641e-05, -4.10248394e-05,
          -4.41440643e-05, -3.63122272e-05, -3.35514269e-05,
          -3.95872012e-05, -3.12504417e-05, -1.27682461e-05,
          -7.57804037e-06, -1.76474205e-05, -2.05425895e-05,
          -1.58082112e-05, -6.91915375e-06, -2.26538509e-06,
          1.98248313e-06, -5.87660043e-06, -3.21477273e-05,
          -1.53868150e-05, 1.08825789e-05, 2.94054971e-05,
          2.65981471e-05, -9.34446803e-07, -1.80412917e-05,
          -1.20787008e-05, -2.22534363e-05, -3.66053137e-05,
          -3.75673917e-05, -2.70637684e-05, -2.66236584e-05,
          -1.48044928e-05, -2.23963775e-06, -1.35050950e-05,
          -4.01742182e-05, -4.19838798e-05, -3.97587173e-05,
          -3.58999932e-05, -2.38461489e-05, -3.64719126e-05,
          -4.89392878e-05, -3.43739848e-05, -2.77464133e-05,
          -3.10898067e-05, -3.44851978e-05, -1.81705891e-05,
          -1.77828133e-05, -1.57702070e-05, -6.16214265e-06,
          8.31142813e-07, 5.60757553e-06, 9.52496248e-06, 1.17772734e-05,
          1.35341870e-05, -2.07117955e-06, 1.47757021e-06,
          7.64858487e-06, 1.23535428e-05, 1.12876114e-05, 7.87941644e-06,
          4.67354448e-06, -2.46764057e-06, -3.09421262e-06,
          -9.77687932e-07, -1.99970532e-06, -7.41788472e-06,
          -4.82972928e-06, 1.04181890e-05, 1.00145735e-05,
          1.16625633e-05, 9.11946336e-06, 4.28000840e-06,
          -1.70639714e-06, -8.59815646e-06, -3.87542314e-05,
          -4.65201811e-05, -4.48623432e-05, -3.70650851e-05,
          -3.41613086e-05, -2.97144088e-05, -2.04041717e-05,
          -1.14535851e-05, -1.18755606e-05, -1.08492932e-05,
          -1.75235655e-05, -1.38794503e-05, -9.70850465e-07,
          -8.23068490e-07, -4.95060976e-06, -9.83830887e-06,
          -2.14297670e-05, -1.47070759e-05, 8.14619398e-06,
          2.12018804e-05, 2.20258225e-05, 8.90967658e-06,
          -1.14857021e-05, -1.61517175e-06, -2.49428285e-05,
          -4.42688688e-05, -4.28145722e-05, -2.42839815e-05,
          -2.87278144e-05, -2.82326237e-05, -1.48875351e-05,
          -2.37006425e-05, -3.30904841e-05, -3.28858332e-05,
          -3.49944530e-05, -3.18749881e-05, -3.34271353e-05,
          -5.15124193e-05, -5.96403843e-05, -5.47655945e-05,
          -4.04046768e-05, -3.35661098e-05, -2.02106257e-05,
          -1.86675934e-05, -2.10707949e-05, -1.02479444e-05,
          -2.11959400e-06, 3.73373859e-06, 8.27022086e-06,
          1.25208753e-05, 1.43382786e-05, 1.62330016e-05, 2.98127406e-06,
          6.79269579e-06, 1.26912773e-05, 1.57945960e-05, 1.13963351e-05,
          6.78220795e-06, 2.15191881e-06, -3.03800175e-06,
          -5.57739895e-07, 1.73290300e-06, 1.48620074e-06,
          1.24888663e-06, 9.65177719e-07, 1.48556637e-05, 1.62235283e-05,
          1.86073976e-05, 2.20538695e-05, 1.49595035e-05, 5.92853303e-06,
          1.15034054e-05, 1.18652997e-05, -3.61229868e-05,
          -6.46992412e-05, -4.89451959e-05, -3.81037316e-05,
          -3.14458302e-05, -1.78211303e-05, -1.04202645e-05,
          -1.64138364e-05, -1.37384877e-05, -1.16494630e-05,
          -1.18259723e-05, -4.00292947e-06, -8.97401605e-06,
          -1.79329418e-05, -1.55092621e-05, -1.42661056e-05,
          -6.07021866e-06, 2.01676339e-05, 2.56643252e-05,
          2.82547462e-05, 1.55149883e-05, -2.54499426e-08,
          1.08895256e-06, -5.70701468e-06, -3.47375098e-05,
          -5.46100637e-05, -6.87173742e-05, -3.25030051e-05,
          -2.59996723e-05, -2.14789852e-05, -2.73149453e-05,
          -2.79018168e-05, -3.95494717e-05, -4.12880436e-05,
          -3.28818860e-05, -3.44082364e-05, -4.72044048e-05,
          -4.66495476e-05, -5.36487059e-05, -5.72923673e-05,
          -3.85947787e-05, -7.23003268e-06, -1.72718137e-05,
          -1.72396340e-05, -4.81132793e-06, 9.92985179e-07,
          4.33649939e-06, 8.27368240e-06, 1.05831123e-05, 1.45763979e-05,
          1.78225600e-05, 7.73305874e-06, 1.30254666e-05, 1.59805859e-05,
          1.66682639e-05, 1.43805819e-05, 1.00565567e-05, 1.42963734e-06,
          -1.51614472e-06, 1.07051460e-06, 3.96937276e-06,
          2.87665534e-06, 2.91332799e-06, 2.60046227e-06, 7.88495709e-06,
          1.28616002e-05, 1.43250672e-05, 2.44209914e-05, 2.30226833e-05,
          1.24557155e-05, 1.26035666e-05, 1.99562401e-05,
          -3.05283065e-05, -5.64529582e-05, -4.91977444e-05,
          -4.85979435e-05, -3.11233271e-05, -1.41414812e-05,
          -1.20561990e-05, -1.44829355e-05, -2.10813487e-05,
          -1.75764599e-05, -2.01114835e-05, -1.42897461e-05,
          -2.66270999e-05, -3.19204337e-05, -2.85099431e-05,
          -1.21211124e-05, -1.77647564e-06, 9.91934940e-06,
          7.83543783e-06, 1.54415538e-05, 1.94957011e-05, 5.82272241e-06,
          -1.36945719e-05, -8.98944472e-06, -2.34362469e-05,
          -5.97704457e-05, -6.22379885e-05, -2.48282795e-05,
          -1.60902673e-05, -8.38836604e-06, -1.44891765e-05,
          -1.42490308e-05, -4.45126752e-05, -4.67376885e-05,
          -3.77473662e-05, -3.56567180e-05, -2.85674214e-05,
          -3.95220086e-05, -5.45491857e-05, -5.66781637e-05,
          -3.59359001e-05, -1.48138533e-05, -9.19277772e-06,
          -1.31854176e-05, 3.96692258e-06, 9.86140185e-06,
          9.01660860e-06, 1.19224869e-05, 1.34141046e-05, 1.36426479e-05,
          1.64254398e-05, 1.13520618e-05, 1.52183120e-05, 1.65274214e-05,
          1.60056370e-05, 1.42296967e-05, 1.12453490e-05, 4.24473183e-06,
          7.28547775e-07, 1.23654024e-06, 8.05628872e-07,
          -7.63387675e-07, 1.07931889e-07, 3.17790750e-06,
          4.79889241e-06, 1.08823451e-05, 1.63157438e-05, 1.72360833e-05,
          1.56053338e-05, 7.57054340e-06, 3.27491421e-06, 1.34635202e-05,
          -4.20539845e-06, -3.58404213e-05, -3.90003006e-05,
          -4.61888994e-05, -3.14114477e-05, -1.77324946e-05,
          -2.86945760e-05, -1.99501392e-05, -2.19573885e-05,
          -2.88975225e-05, -2.89852433e-05, -2.48034376e-05,
          -3.51119998e-05, -3.70830348e-05, -2.66813549e-05,
          -1.92654461e-05, 3.18313164e-06, 9.37251298e-06,
          -1.78032462e-06, 2.02817034e-07, -7.50184836e-06,
          -1.16902711e-05, -2.50376488e-05, -9.33088450e-06,
          -4.05000828e-05, -6.49491849e-05, -6.31841831e-05,
          -2.65601702e-05, -1.88030060e-06, -7.88807483e-06,
          -2.26459015e-05, -3.15095240e-05, -5.04182754e-05,
          -4.18313975e-05, -3.78088116e-05, -4.09201530e-05,
          -2.26029733e-05, -3.94286981e-05, -5.55233164e-05,
          -4.11624205e-05, -2.28158551e-05, -1.40196507e-05,
          -3.00593092e-06, -7.13578083e-06, -4.82964106e-06,
          9.50283811e-06, 9.91004799e-06, 9.81768517e-06, 1.02292324e-05,
          6.96243296e-06, 6.03726176e-06, 1.40685761e-05, 1.74599263e-05,
          1.72491509e-05, 1.50361220e-05, 1.28115998e-05, 1.11376567e-05,
          7.59673958e-06, 2.58524437e-06, -2.62377625e-06,
          -7.57649059e-06, -9.42065799e-06, -2.91246533e-06,
          2.34384629e-06, 8.06208482e-06, 1.79462149e-05, 1.57137092e-05,
          1.18467542e-05, 5.12140832e-06, 1.02938770e-06, 9.67645065e-06,
          4.83216809e-07, -3.18854200e-06, -2.49429668e-05,
          -1.77410730e-05, -3.24502471e-05, -3.05438443e-05,
          -2.83820900e-05, -2.90171556e-05, -2.42829938e-05,
          -1.62145061e-05, -2.11276019e-05, -3.21464468e-05,
          -4.08593187e-05, -3.48117683e-05, -3.52413626e-05,
          -1.94395798e-05, -1.97504105e-05, -8.35787068e-06,
          -7.09639471e-06, -1.58745243e-05, -1.45008571e-05,
          -3.20139698e-05, -3.13215533e-05, -2.70408727e-05,
          -1.77769780e-05, -4.91477404e-05, -6.06286703e-05,
          -6.12175645e-05, -3.77528013e-05, -2.90414318e-05,
          -1.35576702e-05, -1.09642770e-05, -3.83795195e-05,
          -5.44546419e-05, -5.63664798e-05, -5.03841184e-05,
          -3.67494213e-05, -2.37882396e-05, -3.46857378e-05,
          -4.24560967e-05, -2.61352343e-05, -8.69075939e-06,
          -2.78234552e-06, 1.24252947e-05, 1.60357504e-05,
          5.71706869e-06, 7.63181379e-06, 4.36007349e-06,
          -1.06354230e-06, -3.23292625e-07, -6.02454566e-06,
          -1.15369930e-05, 1.61231765e-05, 1.88478080e-05,
          1.94541863e-05, 1.73418648e-05, 1.53363799e-05, 1.56702463e-05,
          1.27742060e-05, 6.40208600e-06, -1.06805636e-07,
          -7.21335073e-06, -1.16332603e-05, -6.44630472e-06,
          -3.06958100e-06, 8.38557844e-06, 1.60817999e-05,
          1.13076958e-05, 5.88114153e-06, -5.16305863e-06,
          -6.55706026e-06, 1.02252288e-05, 4.17613865e-06,
          3.32367836e-06, -2.45585925e-05, -1.52656485e-05,
          -1.52504081e-05, -2.26268708e-06, -1.41679520e-05,
          -1.95218909e-05, -1.50141977e-05, -2.23179159e-05,
          -2.53946382e-05, -3.47293790e-05, -4.19756543e-05,
          -4.89855738e-05, -4.06212530e-05, -4.02278420e-05,
          -3.90734167e-05, -3.27624293e-05, -2.39958936e-05,
          -2.10205235e-05, -2.09402315e-05, -4.10878129e-05,
          -4.59871153e-05, -3.08633644e-05, -2.71642675e-05,
          -4.26511724e-05, -4.03175254e-05, -3.14816061e-05,
          -3.01436557e-05, -3.09611387e-05, -1.74741235e-05,
          -3.22311425e-05, -4.77862959e-05, -5.76160710e-05,
          -6.50286383e-05, -5.97690378e-05, -4.12176560e-05,
          -3.58456382e-05, -3.35779223e-05, -2.31546819e-05,
          -1.51874665e-05, -3.68557539e-06, 7.07459094e-06,
          1.97036916e-05, 1.96954024e-05, 6.97088035e-06, 5.31204796e-06,
          -1.89834213e-06, -1.00924808e-05, -1.10771180e-05,
          -1.49454791e-05, -2.02781812e-05, 1.65908514e-05,
          1.82032963e-05, 1.84328728e-05, 1.70421972e-05, 1.41477230e-05,
          1.35203099e-05, 1.25351253e-05, 1.07806263e-05, 6.01700958e-06,
          1.49795653e-06, -9.16570207e-06, -1.45884742e-05,
          -9.44262592e-06, -2.20464972e-06, -1.93187157e-06,
          1.60383897e-05, 8.64917638e-06, -2.48034735e-06,
          3.54565532e-06, 2.24397195e-06, -1.56911683e-05,
          2.57692562e-07, -2.48320084e-05, -2.52987429e-05,
          -3.73870571e-05, -2.76201936e-05, -4.89161857e-06,
          -1.29244927e-05, -1.29098116e-05, -1.46721959e-05,
          -2.56036255e-05, -3.49323818e-05, -4.24630234e-05,
          -4.23191777e-05, -3.59841979e-05, -3.50573973e-05,
          -3.70912821e-05, -2.19906924e-05, -8.39219410e-06,
          -1.95958692e-05, -3.55362899e-05, -3.91844333e-05,
          -4.87785837e-05, -4.52757413e-05, -4.71667590e-05,
          -2.92085460e-05, -1.65664278e-05, -3.07359769e-05,
          -3.32807213e-05, -2.27988785e-05, -2.80811309e-05,
          -3.28426177e-05, -3.63868712e-05, -4.89394879e-05,
          -6.02144137e-05, -5.46267875e-05, -5.54300532e-05,
          -4.77140711e-05, -3.68445872e-05, -2.13854819e-05,
          -1.06897796e-05, -2.29092802e-06, 5.87388240e-06,
          8.30439694e-06, 1.66758055e-05, 8.34359344e-06, 4.58241402e-06,
          -4.21488630e-06, -1.13336864e-05, -1.24683384e-05,
          -1.56253900e-05, -1.94394652e-05, 1.37312145e-05,
          1.64633748e-05, 1.52583307e-05, 1.29918390e-05, 9.12697760e-06,
          7.51656171e-06, 7.53268750e-06, 8.89855164e-06, 8.90446790e-06,
          3.78348682e-06, -3.74316323e-06, -1.28962847e-05,
          -1.14845343e-05, -6.56877410e-06, 7.56851250e-07,
          5.82723807e-08, -1.12461967e-05, -2.30513956e-06,
          1.14274408e-05, -3.38028235e-06, -1.33622161e-05,
          -7.28632131e-07, -2.47858316e-05, -2.63307702e-05,
          -2.84380658e-05, -1.60241289e-05, -5.25316864e-06,
          -1.08226968e-05, -8.91212039e-06, -1.80481529e-05,
          -2.38229604e-05, -2.54227634e-05, -3.41405175e-05,
          -3.61365746e-05, -2.63734728e-05, -2.19055310e-05,
          -1.50627056e-05, -1.42907747e-05, -4.57440410e-06,
          -1.75522146e-05, -3.83737497e-05, -2.55003051e-05,
          -3.37494675e-05, -3.75084055e-05, -3.86910433e-05,
          -2.56692856e-05, -4.98342615e-06, -1.85964600e-05,
          -2.26146931e-05, -2.87394141e-05, -3.27348425e-05,
          -2.25312942e-05, -3.35885306e-05, -5.25062933e-05,
          -5.66601120e-05, -5.56466985e-05, -6.13883531e-05,
          -3.34014985e-05, -1.90922328e-05, -1.87902078e-05,
          -1.01886108e-05, -9.36507968e-06, -1.07136248e-06,
          1.04776518e-05, 1.03201510e-05, -2.14895437e-07,
          -3.97198482e-06, -6.31856892e-06, -7.21997458e-06,
          -8.81837968e-06, -1.09107559e-05, -1.24395547e-05,
          9.22646723e-06, 1.31100323e-05, 1.15113180e-05, 9.95498067e-06,
          5.45534886e-06, 2.92047253e-06, 3.22836127e-06, 1.05194601e-06,
          4.28495878e-06, 3.02840840e-06, -1.79049414e-06,
          -9.56952226e-06, -9.75974763e-06, -6.28884254e-06,
          -1.01615217e-06, -6.04297156e-06, -1.08945251e-05,
          -2.38289613e-06, 9.77139734e-06, 6.23471351e-06,
          -1.25237175e-05, -8.42537247e-06, -2.64903574e-05,
          -2.78541884e-05, -2.39900874e-05, -1.06234993e-05,
          -6.64145864e-06, -3.92699621e-06, -2.46946511e-05,
          -2.88010706e-05, -2.25170770e-05, -1.70884923e-05,
          -3.04333826e-05, -2.73266760e-05, -1.84291512e-05,
          -2.85093229e-05, -2.81912053e-05, -2.53054259e-05,
          -1.97186582e-05, -1.92509142e-05, -3.23187523e-05,
          -2.41962716e-05, -2.17827310e-05, -3.33061071e-05,
          -3.84026134e-05, -1.98559810e-05, -7.87462000e-07,
          -1.01267115e-05, -1.63714813e-05, -1.66327591e-05,
          -2.06107015e-05, -3.00698630e-05, -4.26901970e-05,
          -6.06862923e-05, -5.65888186e-05, -5.17580629e-05,
          -4.59191506e-05, -2.97925744e-05, -2.05142223e-05,
          -2.05161105e-05, -9.88753163e-06, -4.34600133e-06,
          4.54253666e-07, 4.71444673e-06, 5.31167780e-06,
          -2.71393333e-06, -4.60497085e-06, -3.78260575e-06,
          -2.60803699e-06, -3.24433336e-06, -4.74574290e-06,
          -5.58842885e-06, -5.30643661e-07, 3.05598815e-06,
          3.89735624e-06, 2.31284594e-06, -4.41143266e-06,
          -6.76692707e-06, -6.77752496e-06, -1.10166402e-05,
          -8.56440874e-06, -4.43843055e-06, -4.41627890e-06,
          -1.00353345e-05, -9.80084496e-06, -6.54355381e-06,
          -1.29934347e-06, -6.12342365e-06, -9.30919668e-06,
          -6.33816308e-06, 2.19108912e-07, 3.52295547e-06,
          -6.09948529e-06, -1.39181129e-05, -1.93826691e-05,
          -2.08320525e-05, -1.27599023e-05, -3.19733886e-06,
          -4.79283131e-07, 1.22187303e-05, -3.35143523e-05,
          -4.00767094e-05, -4.16371768e-05, -2.35760654e-05,
          -2.80544573e-05, -1.88475879e-05, -1.21977710e-05,
          -2.48677097e-05, -2.57585070e-05, -1.61995340e-05,
          -2.37170880e-05, -3.81751452e-05, -3.30063558e-05,
          -2.65348772e-05, -1.39119356e-05, -1.34356469e-05,
          -1.36075851e-05, -6.88353703e-06, -4.93505809e-07,
          -5.09957044e-06, 9.84365488e-06, -1.90132153e-06,
          -1.42948738e-05, -2.57221764e-05, -3.20701365e-05,
          -4.64735131e-05, -6.24059539e-05, -4.98414047e-05,
          -3.82329999e-05, -3.07079572e-05, -1.93485812e-05,
          -6.99922566e-06, -3.85385056e-06, 3.42073827e-06,
          6.32319825e-06, 4.94110191e-06, 6.30221621e-06,
          -1.27041164e-06, -3.29793625e-06, -1.41493354e-06,
          1.31241029e-06, 2.89708260e-06, 3.79420430e-06, 3.40919314e-06,
          -8.99745373e-06, -5.29896033e-06, -2.50858920e-06,
          -5.81456925e-06, -1.35754526e-05, -1.73343269e-05,
          -1.87752703e-05, -1.89268849e-05, -1.85876415e-05,
          -1.35733362e-05, -8.30037152e-06, -1.00815469e-05,
          -8.80836888e-06, 9.39299696e-07, 1.91412164e-06,
          -6.70595637e-06, -7.84018903e-06, -6.09032350e-06,
          -1.05952513e-05, -1.03160783e-05, -1.02933654e-05,
          -2.24548749e-05, -2.40032896e-05, -3.02582157e-05,
          -3.20916502e-06, 1.44212036e-05, 1.30978869e-05,
          1.43916768e-05, -2.93914964e-05, -2.71739173e-05,
          -2.74030845e-05, -2.15960317e-05, -8.02105387e-06,
          -1.48997815e-05, -1.45864815e-05, -2.73343776e-05,
          -2.65278541e-05, -1.34837837e-05, -2.84516736e-05,
          -3.72452450e-05, -3.67087596e-05, -2.42906735e-05,
          3.77003130e-06, -5.98744100e-06, -1.88542663e-06,
          -9.43106988e-06, -5.64897118e-06, -4.92324671e-06,
          5.08743551e-06, 2.46633454e-06, -9.72942598e-06,
          -2.32485527e-05, -3.70596936e-05, -4.73540567e-05,
          -5.01021023e-05, -4.15904578e-05, -3.58138568e-05,
          -2.56107196e-05, -7.93638992e-06, 9.63391631e-06,
          8.25312418e-06, 6.18478316e-06, 3.71014380e-06, 4.95978747e-06,
          9.34479704e-06, 1.20374796e-06, -1.47189087e-06,
          -6.65731477e-07, 2.87830198e-06, 7.41185886e-06,
          1.02816157e-05, 9.30855003e-06, -1.05396548e-05,
          -4.29036390e-06, -6.86302337e-06, -1.00582038e-05,
          -1.45710801e-05, -2.07524263e-05, -2.58113523e-05,
          -2.42841634e-05, -2.42313545e-05, -1.99056776e-05,
          -1.19989982e-05, -1.08070099e-05, -7.09803317e-06,
          3.64559764e-06, 5.00082842e-06, 6.31017315e-07,
          -7.04056447e-06, -1.85160716e-05, -2.17263732e-05,
          -1.05175577e-05, -5.26444637e-06, -2.33855353e-05,
          -2.64550690e-05, -3.63521540e-05, -1.64612884e-05,
          2.75205048e-06, 2.00527375e-05, 2.86188260e-05, 2.07139783e-05,
          -1.49985544e-05, -1.86235247e-05, -4.42874170e-06,
          7.30827151e-06, -1.50040141e-05, -1.65206566e-05,
          -6.59345596e-06, -1.87351270e-05, -4.42264354e-05,
          -5.42097478e-05, -5.33387065e-05, -4.12917798e-05,
          -1.24092057e-05, 3.91717379e-07, -6.91184459e-06,
          -1.36669985e-06, -1.41545579e-05, -2.10808139e-05,
          -1.14473869e-05, -1.42772615e-05, -2.01032685e-06,
          -1.03810180e-05, -2.20875481e-05, -4.37932795e-05,
          -5.13914238e-05, -3.61440361e-05, -3.09590469e-05,
          -2.21381542e-05, -1.66032987e-05, 1.07842898e-05,
          1.66621776e-05, 7.92420178e-06, 5.37528422e-06, 4.83558279e-06,
          6.53914685e-06, 9.90614717e-06, 2.90486309e-06,
          -5.32173772e-07, -7.38406982e-07, 3.35093500e-06,
          8.54524296e-06, 1.21493549e-05, 1.24597173e-05,
          -6.22920288e-06, -4.64600407e-06, -7.77170317e-06,
          -1.10743531e-05, -1.77337952e-05, -2.54902370e-05,
          -2.88460906e-05, -2.81688972e-05, -2.82833116e-05,
          -2.13289168e-05, -2.00715913e-05, -2.15809141e-05,
          -3.84745999e-06, 1.72957443e-05, 1.42186700e-05,
          1.26762479e-05, -7.14436692e-06, -1.80357274e-05,
          -1.59352621e-05, -5.74983187e-06, -6.13948305e-06,
          -1.71292668e-05, -2.03000873e-05, -2.91568012e-05,
          -2.16118860e-05, -2.53139046e-06, 1.18417993e-05,
          3.23512577e-05, 4.33108544e-05, 8.20591686e-06,
          -7.91946150e-06, -3.12093198e-06, -8.55764938e-06,
          -4.64203185e-06, -1.04503542e-05, -1.58038747e-05,
          -2.86407758e-05, -2.46178279e-05, -2.43768318e-05,
          -5.31056721e-05, -5.47173950e-05, -1.94497770e-05,
          -9.58268174e-06, -8.30987483e-06, -2.40486179e-06,
          -1.43443958e-05, -2.90779008e-05, -1.24803846e-05,
          2.79844062e-06, 3.89280603e-06, -6.84455244e-06,
          -2.63056190e-05, -4.00291683e-05, -4.70798950e-05,
          -2.15429354e-05, 4.42071766e-08, 1.26633286e-05,
          1.41872779e-05, 1.81412906e-05, 1.78968348e-05, 1.44325741e-05,
          1.53027650e-05, 1.44976357e-05, 1.17802383e-05, 6.65042080e-06,
          1.27334062e-07, -3.91237245e-06, -2.95663449e-06,
          3.16675937e-07, 4.42427336e-06, 6.14123928e-06, 7.07636900e-06,
          -3.45760964e-06, 1.00310513e-06, -7.00463306e-06,
          -1.49604948e-05, -2.30271289e-05, -2.84449652e-05,
          -3.06843212e-05, -2.30215592e-05, -2.10260660e-05,
          -1.63834884e-05, -1.86198595e-05, -2.38416433e-05,
          -1.18063081e-05, -1.31603156e-06, -3.84634495e-06,
          -1.61860942e-06, -4.62845355e-06, -1.26953782e-05,
          -7.54117491e-06, -6.07638049e-06, -9.56396616e-06,
          -1.32622117e-05, -2.04304015e-05, -1.97374648e-05,
          -1.52238526e-05, -4.32665684e-06, 1.11438130e-05,
          3.57624958e-05, 5.25650248e-05, 2.10958824e-05,
          -6.52714471e-06, -9.50866070e-06, -9.08807124e-06,
          -1.73589051e-05, -1.48178406e-05, -2.31305567e-05,
          -2.13478743e-05, -1.49682128e-05, -8.98291091e-06,
          -2.56679068e-05, -3.30459297e-05, -2.61265941e-05,
          -5.45126795e-06, -1.59793763e-05, -1.82967979e-05,
          -1.74622619e-05, -2.30559235e-05, -1.02996810e-05,
          1.63751542e-06, 1.21778601e-06, -1.44695196e-05,
          -2.32467391e-05, -2.97813731e-05, -1.72779855e-05,
          -6.57002875e-06, 9.67686447e-06, 2.39940491e-05,
          2.21693208e-05, 2.01469338e-05, 2.04301468e-05, 1.88210961e-05,
          2.20696584e-05, 2.24208306e-05, 1.57791746e-05, 4.66580923e-06,
          -1.68104486e-06, -6.56197881e-06, -4.28712974e-06,
          -5.03538047e-07, 1.84156681e-06, 1.97483541e-06,
          2.89520199e-06, -4.94240157e-06, 6.34915352e-07,
          -7.97065695e-06, -1.85503723e-05, -2.74782669e-05,
          -2.94073161e-05, -2.59446297e-05, -2.29935686e-05,
          -2.27542732e-05, -1.89736675e-05, -1.63266304e-05,
          -2.03197014e-05, -1.51300028e-05, -1.04002856e-05,
          -8.79396612e-06, -3.99271266e-06, -6.72670285e-06,
          -4.45290152e-06, -9.12881774e-07, -2.31965237e-06,
          -1.06077741e-05, -6.21440904e-06, -1.38960704e-05,
          -1.42240988e-05, -4.19900698e-06, -2.60525439e-07,
          6.24049289e-06, 3.53130272e-05, 5.46508054e-05, 2.70840374e-05,
          -4.30314276e-06, 1.13135400e-06, -1.98289831e-06,
          -4.24690916e-06, -7.68311293e-06, -2.71525878e-05,
          -2.84858088e-05, -1.36243489e-05, 2.43900581e-06,
          -3.27827479e-06, -2.41265825e-05, -3.07934424e-05,
          -3.44966998e-06, -1.48884392e-05, -3.36370722e-05,
          -3.08453164e-05, -2.87593957e-05, -1.11621575e-05,
          3.65870534e-08, -9.93294634e-06, -1.73045955e-05,
          -1.64763296e-05, -1.95703742e-05, -1.01875557e-05,
          -1.57371524e-05, 1.13013880e-06, 2.81946232e-05,
          2.87846542e-05, 2.19012891e-05, 1.92086991e-05, 2.27086657e-05,
          2.45702431e-05, 2.38782795e-05, 1.42526014e-05, 4.01608804e-06,
          -1.56539272e-06, -6.15884164e-06, -3.34363722e-06,
          9.75657144e-07, 1.59273702e-06, 2.42400318e-07,
          -5.39339283e-07, -1.03436041e-05, -9.11715506e-06,
          -1.15017574e-05, -1.98490943e-05, -2.64227674e-05,
          -2.58539112e-05, -2.37138192e-05, -2.38916673e-05,
          -2.15609816e-05, -1.70622534e-05, -1.42786994e-05,
          -1.81101350e-05, -8.28798784e-06, -8.39426957e-06,
          -1.40429393e-05, -1.23290802e-05, -1.24445824e-05,
          -2.38711232e-06, 4.43416957e-06, -3.63930440e-06,
          -8.16167540e-06, -1.94957761e-06, -6.22535799e-06,
          -1.02393478e-05, -1.14190452e-05, -9.56161148e-06,
          -1.11253746e-06, 3.92258880e-06, 1.60422987e-05,
          5.54182498e-06, 1.46608056e-06, -5.30186480e-06,
          -1.18588446e-06, -3.28927831e-06, -1.57433624e-05,
          -2.33568553e-05, -2.08235142e-05, 1.41577004e-06,
          1.73113167e-05, 1.59678257e-05, -1.74912420e-05,
          -3.17390040e-05, -2.63724232e-05, -1.37164170e-05,
          -3.14611134e-05, -3.20114596e-05, -2.68523509e-05,
          -1.94930981e-05, 1.06995083e-06, -1.63102923e-05,
          -2.37845779e-05, -1.79453582e-05, -1.93412834e-05,
          -1.62816068e-05, -1.45500162e-05, 6.12189069e-06,
          2.69199936e-05, 2.70104738e-05, 2.24300966e-05, 1.69362302e-05,
          2.17814941e-05, 2.27833607e-05, 2.04275002e-05, 1.16125602e-05,
          4.88571823e-06, 2.85507923e-07, -6.44666670e-06,
          -3.70080943e-06, -2.64785371e-07, 2.07737526e-06,
          1.77012237e-06, 2.21669609e-07, -1.36341523e-05,
          -1.61979206e-05, -1.29063865e-05, -1.75826735e-05,
          -2.28463214e-05, -2.37296736e-05, -2.73145506e-05,
          -2.71038352e-05, -2.21480950e-05, -1.78243226e-05,
          -1.48646031e-05, -1.36260551e-05, -9.06713740e-06,
          -7.95655433e-06, -1.61060980e-05, -1.93905216e-05,
          -1.50467149e-05, -8.84022666e-06, 5.01245154e-07,
          -7.18350475e-06, -4.98010650e-06, 2.40982331e-06,
          -3.57503495e-06, -6.21377467e-06, -1.49141533e-05,
          -1.15428547e-05, -1.19391980e-05, -1.59210704e-05,
          2.23180973e-06, 1.14277500e-05, -3.74774231e-06,
          -1.62537890e-05, -1.30739472e-05, -1.46473240e-05,
          -2.71986573e-05, -2.18912064e-05, -2.79171691e-05,
          -1.34064940e-05, 1.18338767e-05, -8.02849172e-06,
          -3.02053286e-05, -3.20231629e-05, -5.44800532e-05,
          -1.82414988e-05, -3.04054502e-05, -3.31258889e-05,
          -2.53273392e-05, -1.29753025e-05, 8.46055968e-07,
          -1.13977321e-05, -2.28259451e-05, -3.46283159e-05,
          -2.03531799e-05, -1.71638803e-05, -3.38991504e-06,
          1.15448493e-05, 1.96091751e-05, 2.16714161e-05, 2.20101865e-05,
          1.78514038e-05, 2.16624085e-05, 2.17705565e-05, 1.12445805e-05,
          5.70512839e-06, 4.88535352e-06, 4.31335252e-07,
          -7.30530610e-06, -6.61351123e-06, -2.83920235e-06,
          -7.17424655e-07, -7.24707476e-08, -1.67929534e-06,
          -1.41471819e-05, -1.56181377e-05, -1.50136384e-05,
          -1.79063591e-05, -2.13130952e-05, -2.50873800e-05,
          -2.85336064e-05, -2.81157245e-05, -2.14174888e-05,
          -1.71255542e-05, -1.42870049e-05, -1.14145578e-05,
          -8.32735714e-06, -6.67882068e-06, -7.33649767e-06,
          -1.20229652e-05, -1.19533106e-05, -1.32359637e-05,
          -3.23474137e-06, -5.36580274e-06, 3.50879560e-07,
          4.11757537e-06, -2.49153891e-06, -1.23091995e-05,
          -1.41080254e-05, -1.93702126e-05, -2.38380781e-05,
          -2.00789254e-05, -1.09236644e-05, -1.24121079e-05,
          -1.70057792e-05, -2.28374320e-05, -1.38168798e-05,
          -1.99365459e-05, -3.35384211e-05, -3.02783410e-05,
          -2.54989427e-05, -1.48553063e-05, 4.69688757e-06,
          -2.33905689e-06, -1.80267252e-05, -4.68004946e-05,
          -3.75504897e-05, -1.08682998e-05, -1.87671030e-05,
          -2.67172491e-05, -2.85761198e-05, -1.63814530e-05,
          -4.54592555e-06, -8.58983731e-06, -1.21060766e-05,
          -2.46522814e-05, -2.08495840e-05, -1.52733446e-05,
          -8.86999624e-06, 5.99687064e-06, 1.85888202e-05,
          2.23378029e-05, 2.51883848e-05, 2.56393414e-05, 2.61119985e-05,
          2.71857298e-05, 1.05174422e-05, 3.28988949e-06, 3.66189101e-06,
          -8.66178993e-07, -7.55164547e-06, -7.86724377e-06,
          -7.26780809e-06, -6.60428486e-06, -5.07919094e-06,
          -4.11074825e-06, -1.30604722e-05, -1.38687519e-05,
          -1.58713374e-05, -1.80824518e-05, -2.23541410e-05,
          -2.51740803e-05, -2.66463776e-05, -2.59929438e-05,
          -2.23855241e-05, -1.96356104e-05, -1.71743850e-05,
          -1.38913929e-05, -1.18593316e-05, -7.48415641e-06,
          -1.15703906e-05, -1.87195619e-05, -1.28744714e-05,
          -6.45417276e-06, -9.62265858e-06, 1.70189836e-07,
          7.85658358e-06, 8.39229142e-06, 6.87067450e-06, 2.49860864e-06,
          -1.30266044e-05, -1.85304380e-05, -2.61023688e-05,
          -3.56817836e-05, -2.34290765e-05, -1.89814000e-05,
          -1.46824004e-05, -1.81287251e-05, -2.00075556e-05,
          -1.54635964e-05, -6.34539947e-06, -1.42886847e-05,
          -2.24681571e-05, -5.41644567e-06, 7.40494170e-06,
          -2.58533578e-06, -1.43903753e-05, -3.98610246e-05,
          -2.54819133e-05, -2.98666910e-05, -2.13343428e-05,
          -2.19005397e-05, -1.97063964e-05, -3.72444333e-07,
          -1.97659816e-07, -1.85148394e-07, -5.52487609e-06,
          -8.41665496e-06, -1.15684297e-05, -3.90483910e-06,
          -4.26169890e-06, 7.40159703e-06, 1.97415902e-05,
          2.94672518e-05, 3.19664396e-05, 3.22322230e-05, 3.06604670e-05,
          3.48087451e-05, 2.13918538e-05, 1.01963451e-05, 7.38763356e-06,
          2.27862688e-06, -1.05293816e-06, -1.40264831e-06,
          -4.15010118e-06, -5.71733835e-06, -5.00461101e-06,
